{"learner":{"attributes":{"scikit_learn":"{\"_estimator_type\": \"classifier\"}"},"feature_names":["home_form_last_5","home_form_last_10","home_avg_goals_scored","home_avg_goals_conceded","home_goal_difference","home_win_pct","home_draw_pct","home_clean_sheet_pct","home_avg_shots","home_avg_shots_on_target","home_avg_corners","away_form_last_5","away_form_last_10","away_avg_goals_scored","away_avg_goals_conceded","away_goal_difference","away_win_pct","away_draw_pct","away_clean_sheet_pct","away_avg_shots","away_avg_shots_on_target","away_avg_corners","home_elo","away_elo","elo_difference","home_xg","away_xg","xg_difference","poisson_lambda_home","poisson_lambda_away","poisson_prob_home_win","poisson_prob_draw","poisson_prob_away_win","home_streak","home_momentum","home_points_trend","away_streak","away_momentum","away_points_trend","home_days_rest","home_matches_14d","home_fatigue","away_days_rest","away_matches_14d","away_fatigue","h2h_home_wins","h2h_draws","h2h_away_wins","h2h_total_matches","h2h_home_goals_avg","h2h_away_goals_avg","h2h_total_goals_avg","h2h_over_2_5_pct","h2h_under_2_5_pct","h2h_btts_yes_pct","h2h_btts_no_pct"],"feature_types":["float","float","float","float","float","float","float","float","float","float","float","float","float","float","float","float","float","float","float","float","float","float","float","float","float","float","float","float","float","float","float","float","float","int","float","float","int","float","float","int","int","float","int","int","float","int","int","int","int","float","float","float","float","float","float","float"],"gradient_booster":{"model":{"cats":{"enc":[],"feature_segments":[],"sorted_idx":[]},"gbtree_model_param":{"num_parallel_tree":"1","num_trees":"300"},"iteration_indptr":[0,3,6,9,12,15,18,21,24,27,30,33,36,39,42,45,48,51,54,57,60,63,66,69,72,75,78,81,84,87,90,93,96,99,102,105,108,111,114,117,120,123,126,129,132,135,138,141,144,147,150,153,156,159,162,165,168,171,174,177,180,183,186,189,192,195,198,201,204,207,210,213,216,219,222,225,228,231,234,237,240,243,246,249,252,255,258,261,264,267,270,273,276,279,282,285,288,291,294,297,300],"tree_info":[0,1,2,0,1,2,0,1,2,0,1,2,0,1,2,0,1,2,0,1,2,0,1,2,0,1,2,0,1,2,0,1,2,0,1,2,0,1,2,0,1,2,0,1,2,0,1,2,0,1,2,0,1,2,0,1,2,0,1,2,0,1,2,0,1,2,0,1,2,0,1,2,0,1,2,0,1,2,0,1,2,0,1,2,0,1,2,0,1,2,0,1,2,0,1,2,0,1,2,0,1,2,0,1,2,0,1,2,0,1,2,0,1,2,0,1,2,0,1,2,0,1,2,0,1,2,0,1,2,0,1,2,0,1,2,0,1,2,0,1,2,0,1,2,0,1,2,0,1,2,0,1,2,0,1,2,0,1,2,0,1,2,0,1,2,0,1,2,0,1,2,0,1,2,0,1,2,0,1,2,0,1,2,0,1,2,0,1,2,0,1,2,0,1,2,0,1,2,0,1,2,0,1,2,0,1,2,0,1,2,0,1,2,0,1,2,0,1,2,0,1,2,0,1,2,0,1,2,0,1,2,0,1,2,0,1,2,0,1,2,0,1,2,0,1,2,0,1,2,0,1,2,0,1,2,0,1,2,0,1,2,0,1,2,0,1,2,0,1,2,0,1,2,0,1,2,0,1,2,0,1,2,0,1,2,0,1,2,0,1,2,0,1,2,0,1,2,0,1,2],"trees":[{"base_weights":[-8.58104E-2,2.7574938E-2,-6.039943E-1,-3.6320394E-1,1.2904763E-1,-4.7311606E-3,-6.894235E-2,2.4329556E-2,-5.125964E-1,-3.6499763E-1,2.2005747E-1,2.0209877E-2,-6.76821E-2,-6.352543E-2,3.997994E-3,8.4681684E-1,1.4234683E-1,1.2383473E-1,2.0209877E-2,2.8783998E-2,-2.7054248E-2],"categories":[],"categories_nodes":[],"categories_segments":[],"categories_sizes":[],"default_left":[0,0,0,0,0,0,0,0,0,0,0,0,0,0,0,0,0,0,0,0,0],"id":0,"left_children":[1,3,5,7,9,-1,-1,-1,11,13,15,-1,-1,-1,-1,17,19,-1,-1,-1,-1],"loss_changes":[7.223948E0,4.075727E0,1.0167837E0,2.046145E0,3.7401032E0,0E0,0E0,0E0,2.1716428E0,1.4523597E0,3.257583E0,0E0,0E0,0E0,0E0,1.6300178E0,3.8569674E0,0E0,0E0,0E0,0E0],"parents":[2147483647,0,0,1,1,2,2,3,3,4,4,8,8,9,9,10,10,15,15,16,16],"right_children":[2,4,6,8,10,-1,-1,-1,12,14,16,-1,-1,-1,-1,18,20,-1,-1,-1,-1],"split_conditions":[1.471E2,6.3E-1,1.345E3,1.6E0,9.1E-1,-4.7311606E-3,-6.894235E-2,2.4329556E-2,1.5E-1,1.22E1,5.1E-1,2.0209877E-2,-6.76821E-2,-6.352543E-2,3.997994E-3,5E0,1.59E0,1.2383473E-1,2.0209877E-2,2.8783998E-2,-2.7054248E-2],"split_indices":[24,11,23,14,0,0,0,0,11,19,28,0,0,0,0,39,11,0,0,0,0],"split_type":[0,0,0,0,0,0,0,0,0,0,0,0,0,0,0,0,0,0,0,0,0],"sum_hessian":[1.2166802E2,1.0060183E2,2.1066195E1,2.020635E1,8.039548E1,3.0094564E0,1.8056738E1,3.869301E0,1.633705E1,1.2037826E1,6.835765E1,3.0094564E0,1.3327593E1,6.8787575E0,5.159068E0,6.4488354E0,6.1908817E1,3.4393787E0,3.0094564E0,4.600169E1,1.5907126E1],"tree_param":{"num_deleted":"0","num_feature":"56","num_nodes":"21","size_leaf_vector":"1"}},{"base_weights":[-9.358895E-2,-3.3568498E-1,7.1696706E-2,-6.819442E-2,-1.325382E-1,6.929567E-1,-5.9399005E-2,6.663734E-2,-2.6648104E-1,1.20409206E-1,-3.6688786E-2,4.1452286E-1,-1.8616633E-1,1.8576337E-2,-4.0987664E-1,1.253939E-1,-1.7576793E-2,-2.8111196E-1,4.569861E-2,-5.168217E-2,1.2079101E-2,3.7581053E-2,-5.590978E-2,1.6394692E-2,-4.4412218E-2],"categories":[],"categories_nodes":[],"categories_segments":[],"categories_sizes":[],"default_left":[0,0,0,0,0,0,0,0,0,0,0,0,0,0,0,0,0,0,0,0,0,0,0,0,0],"id":1,"left_children":[1,3,5,-1,7,9,11,-1,13,-1,-1,15,17,-1,19,-1,21,23,-1,-1,-1,-1,-1,-1,-1],"loss_changes":[4.77508E0,3.3105025E0,5.8548765E0,0E0,3.571069E0,7.2226033E0,3.6737518E0,0E0,1.8837218E0,0E0,0E0,4.7168684E0,3.054778E0,0E0,1.2811773E0,0E0,2.2405257E0,3.1471837E0,0E0,0E0,0E0,0E0,0E0,0E0,0E0],"parents":[2147483647,0,0,1,1,2,2,4,4,5,5,6,6,8,8,11,11,12,12,14,14,16,16,17,17],"right_children":[2,4,6,-1,8,10,12,-1,14,-1,-1,16,18,-1,20,-1,22,24,-1,-1,-1,-1,-1,-1,-1],"split_conditions":[1.46E0,7.9E-1,4.2E-1,-6.819442E-2,7.8E-1,5.1E0,1.7E-1,6.663734E-2,1.2E0,1.20409206E-1,-3.6688786E-2,1.7E-1,2.4E0,1.8576337E-2,8.9E-1,1.253939E-1,1.71E0,3.3E-1,4.569861E-2,-5.168217E-2,1.2079101E-2,3.7581053E-2,-5.590978E-2,1.6394692E-2,-4.4412218E-2],"split_indices":[0,29,11,0,50,9,17,0,14,0,0,44,34,0,52,0,49,52,0,0,0,0,0,0,0],"split_type":[0,0,0,0,0,0,0,0,0,0,0,0,0,0,0,0,0,0,0,0,0,0,0,0,0],"sum_hessian":[1.1773078E2,4.7348248E1,7.038253E1,1.663587E1,3.0712378E1,1.1517141E1,5.886539E1,3.8390472E0,2.687333E1,7.6780944E0,3.8390472E0,1.1943702E1,4.6921688E1,6.3984118E0,2.0474918E1,3.4124863E0,8.531216E0,4.1376396E1,5.5452905E0,1.7062431E1,3.4124863E0,5.1187296E0,3.4124863E0,1.1090581E1,3.0285816E1],"tree_param":{"num_deleted":"0","num_feature":"56","num_nodes":"25","size_leaf_vector":"1"}},{"base_weights":[1.7682096E-1,3.3882093E-1,-6.8787016E-2,4.3062687E-1,-3.2160813E-1,-3.8066205E-1,2.8777468E-1,1.2766258E-1,5.5676997E-1,-6.638502E-2,1.1282451E-2,3.139749E-2,-4.867459E-1,-8.958085E-2,7.008698E-1,-5.1270366E-2,3.6600623E-1,1.3752607E-1,7.2128826E-1,-5.735269E-1,-6.397012E-4,6.231926E-2,-4.2219254E-1,9.307175E-2,8.111257E-3,-4.261234E-2,6.432321E-2,-3.5884615E-2,7.1303286E-2,8.845325E-2,-8.209427E-3,-6.957216E-2,-7.8174295E-3,8.111257E-3,-6.838231E-2],"categories":[],"categories_nodes":[],"categories_segments":[],"categories_sizes":[],"default_left":[0,0,0,0,0,0,0,0,0,0,0,0,0,0,0,0,0,0,0,0,0,0,0,0,0,0,0,0,0,0,0,0,0,0,0],"id":2,"left_children":[1,3,5,7,9,11,13,15,17,-1,-1,-1,19,21,23,-1,25,27,29,31,-1,-1,33,-1,-1,-1,-1,-1,-1,-1,-1,-1,-1,-1,-1],"loss_changes":[5.0815287E0,4.793208E0,5.820581E0,2.5211287E0,1.5530707E0,2.2032938E0,3.8868155E0,3.428985E0,3.183381E0,0E0,0E0,0E0,1.0189228E0,3.512696E0,1.60889E0,0E0,3.8008604E0,4.440343E0,4.5242615E0,1.2025847E0,0E0,0E0,1.3646154E0,0E0,0E0,0E0,0E0,0E0,0E0,0E0,0E0,0E0,0E0,0E0,0E0],"parents":[2147483647,0,0,1,1,2,2,3,3,4,4,5,5,6,6,7,7,8,8,12,12,13,13,14,14,16,16,17,17,18,18,19,19,22,22],"right_children":[2,4,6,8,10,12,14,16,18,-1,-1,-1,20,22,24,-1,26,28,30,32,-1,-1,34,-1,-1,-1,-1,-1,-1,-1,-1,-1,-1,-1,-1],"split_conditions":[-2E-1,1.1E1,2.89E0,3.8E0,-7E-1,1.2E-1,4.4E0,9.2E-1,5.9E-2,-6.638502E-2,1.1282451E-2,3.139749E-2,6.2E0,8.6E-1,2.52E-1,-5.1270366E-2,4.03E-1,0E0,4.3E0,6E-1,-6.397012E-4,6.231926E-2,3.9E0,9.307175E-2,8.111257E-3,-4.261234E-2,6.432321E-2,-3.5884615E-2,7.1303286E-2,8.845325E-2,-8.209427E-3,-6.957216E-2,-7.8174295E-3,8.111257E-3,-6.838231E-2],"split_indices":[15,39,51,21,15,26,9,37,32,0,0,0,21,28,31,0,30,38,20,5,0,0,9,0,0,0,0,0,0,0,0,0,0,0,0],"split_type":[0,0,0,0,0,0,0,0,0,0,0,0,0,0,0,0,0,0,0,0,0,0,0,0,0,0,0,0,0,0,0,0,0,0,0],"sum_hessian":[1.2612779E2,7.57708E1,5.035699E1,6.68289E1,8.9418955E0,2.6825687E1,2.3531303E1,2.0236921E1,4.6591984E1,4.7062607E0,4.235635E0,3.2943826E0,2.3531303E1,1.2706904E1,1.08244E1,5.176887E0,1.5060035E1,1.3648156E1,3.2943825E1,1.9766296E1,3.7650087E0,3.7650087E0,8.9418955E0,7.5300174E0,3.2943826E0,3.7650087E0,1.1295026E1,7.5300174E0,6.1181393E0,2.7296312E1,5.647513E0,1.5530661E1,4.235635E0,3.2943826E0,5.647513E0],"tree_param":{"num_deleted":"0","num_feature":"56","num_nodes":"35","size_leaf_vector":"1"}},{"base_weights":[-1.2336525E-1,-3.4653583E-1,7.7504255E-2,-4.0929422E-1,3.6069386E-2,8.251116E-1,-3.8444E-2,-4.632531E-1,1.7974935E-2,1.2832913E-1,-4.560031E-3,-4.3308938E-1,1.5943919E-1,-6.525716E-2,-2.3300369E-1,-5.9150543E-2,-1.0114519E-1,6.112562E-1,-2.0246045E-1,-3.1633282E-3,-5.3807158E-2,-5.6738403E-2,4.3869995E-2,8.86805E-2,7.6494724E-3,-4.592617E-2,1.9309558E-2],"categories":[],"categories_nodes":[],"categories_segments":[],"categories_sizes":[],"default_left":[0,0,0,0,0,0,0,0,0,0,0,0,0,0,0,0,0,0,0,0,0,0,0,0,0,0,0],"id":3,"left_children":[1,3,5,7,-1,9,11,13,-1,-1,-1,15,17,-1,19,-1,21,23,25,-1,-1,-1,-1,-1,-1,-1,-1],"loss_changes":[5.5152216E0,2.729878E0,5.6880302E0,1.796608E0,0E0,3.571538E0,4.555253E0,2.0127115E0,0E0,0E0,0E0,9.6317196E-1,6.4994783E0,0E0,1.4551075E0,0E0,2.1344025E0,2.524188E0,2.3642297E0,0E0,0E0,0E0,0E0,0E0,0E0,0E0,0E0],"parents":[2147483647,0,0,1,1,2,2,3,3,5,5,6,6,7,7,11,11,12,12,14,14,16,16,17,17,18,18],"right_children":[2,4,6,8,-1,10,12,14,-1,-1,-1,16,18,-1,20,-1,22,24,26,-1,-1,-1,-1,-1,-1,-1,-1],"split_conditions":[-5E-1,1.19E1,3.7E0,9.25E-1,3.6069386E-2,4.97E-1,1.04E1,2E-1,1.7974935E-2,1.2832913E-1,-4.560031E-3,1.68E0,1.46E0,-6.525716E-2,3E0,-5.9150543E-2,1.1E0,1.34E1,1.7E0,-3.1633282E-3,-5.3807158E-2,-5.6738403E-2,4.3869995E-2,8.86805E-2,7.6494724E-3,-4.592617E-2,1.9309558E-2],"split_indices":[15,19,21,30,0,30,19,18,0,0,0,12,11,0,43,0,14,19,13,0,0,0,0,0,0,0,0],"split_type":[0,0,0,0,0,0,0,0,0,0,0,0,0,0,0,0,0,0,0,0,0,0,0,0,0,0,0],"sum_hessian":[1.21431145E2,5.7178905E1,6.4252235E1,5.2905434E1,4.273471E0,7.805833E0,5.6446404E1,4.8661392E1,4.24404E0,4.804044E0,3.0017896E0,1.8454111E1,3.799229E1,2.5697714E1,2.296368E1,1.1962989E1,6.4911227E0,1.6590591E1,2.14017E1,1.44976845E1,8.465995E0,3.4556384E0,3.0354846E0,1.0514448E1,6.076144E0,1.287924E1,8.52246E0],"tree_param":{"num_deleted":"0","num_feature":"56","num_nodes":"27","size_leaf_vector":"1"}},{"base_weights":[-1.1892194E-1,3.6784226E-1,-1.7993191E-1,8.5294336E-1,-3.176995E-2,-6.467431E-2,-1.2727514E-1,1.8189026E-2,1.1924136E-1,-2.0667124E-1,2.4571298E-1,1.6946827E-1,-3.0327716E-1,6.2355995E-1,-2.0220293E-1,-4.7188852E-2,5.557989E-2,-3.941959E-2,7.1037636E-4,-2.9605497E-2,1.0534984E-1,-5.6237865E-2,1.5842475E-2],"categories":[],"categories_nodes":[],"categories_segments":[],"categories_sizes":[],"default_left":[0,0,0,0,0,0,0,0,0,0,0,0,0,0,0,0,0,0,0,0,0,0,0],"id":4,"left_children":[1,3,5,7,-1,-1,9,-1,-1,11,13,15,17,19,21,-1,-1,-1,-1,-1,-1,-1,-1],"loss_changes":[3.7547882E0,4.9807463E0,2.6472244E0,1.7342362E0,0E0,0E0,3.0427399E0,0E0,0E0,3.0980566E0,3.204401E0,4.666512E0,1.8954444E0,4.309512E0,1.2682009E0,0E0,0E0,0E0,0E0,0E0,0E0,0E0,0E0],"parents":[2147483647,0,0,1,1,2,2,3,3,6,6,9,9,10,10,11,11,12,12,13,13,14,14],"right_children":[2,4,6,8,-1,-1,10,-1,-1,12,14,16,18,20,22,-1,-1,-1,-1,-1,-1,-1,-1],"split_conditions":[3.1E-1,1.1E0,5.4E-1,1.1E-1,-3.176995E-2,-6.467431E-2,3E-1,1.8189026E-2,1.1924136E-1,9.5E-1,1.617E3,4.2E0,1.78E0,1E0,2.11E0,-4.7188852E-2,5.557989E-2,-3.941959E-2,7.1037636E-4,-2.9605497E-2,1.0534984E-1,-5.6237865E-2,1.5842475E-2],"split_indices":[11,3,28,11,0,0,15,0,0,12,23,9,50,14,12,0,0,0,0,0,0,0,0],"split_type":[0,0,0,0,0,0,0,0,0,0,0,0,0,0,0,0,0,0,0,0,0,0,0],"sum_hessian":[1.2320595E2,1.316228E1,1.1004367E2,7.5649815E0,5.597299E0,1.0011121E1,1.0003255E2,3.0572736E0,4.5077076E0,8.284389E1,1.7188658E1,1.6775093E1,6.60688E1,9.110883E0,8.077775E0,6.2228785E0,1.0552214E1,5.0891346E1,1.5177452E1,3.0017354E0,6.1091475E0,3.7615223E0,4.3162527E0],"tree_param":{"num_deleted":"0","num_feature":"56","num_nodes":"23","size_leaf_vector":"1"}},{"base_weights":[1.5081644E-1,-9.515305E-2,3.4247342E-1,4.9868065E-1,-2.1280485E-1,4.425825E-1,-1.0247365E-1,5.850335E-3,1.0042671E-1,-2.957097E-1,4.4999525E-2,5.212603E-1,-2.6380846E-2,2.1561214E-1,-5.40998E-2,4.2641502E-2,-4.1461492E-1,2.3436269E-1,6.8677086E-1,-4.2552155E-2,7.071988E-2,5.0820196E-3,-5.5446293E-2,1.0403275E-3,8.9654945E-2,7.999583E-2,-2.2540515E-2],"categories":[],"categories_nodes":[],"categories_segments":[],"categories_sizes":[],"default_left":[0,0,0,0,0,0,0,0,0,0,0,0,0,0,0,0,0,0,0,0,0,0,0,0,0,0,0],"id":5,"left_children":[1,3,5,7,9,11,13,-1,-1,15,-1,17,-1,19,-1,-1,21,23,25,-1,-1,-1,-1,-1,-1,-1,-1],"loss_changes":[6.580696E0,4.4108515E0,3.5325575E0,2.2752624E0,2.9973965E0,3.6998568E0,2.235608E0,0E0,0E0,4.2068357E0,0E0,2.5936012E0,0E0,3.3012383E0,0E0,0E0,2.6842632E0,3.3631442E0,3.9249783E0,0E0,0E0,0E0,0E0,0E0,0E0,0E0,0E0],"parents":[2147483647,0,0,1,1,2,2,3,3,4,4,5,5,6,6,9,9,11,11,13,13,16,16,17,17,18,18],"right_children":[2,4,6,8,10,12,14,-1,-1,16,-1,18,-1,20,-1,-1,22,24,26,-1,-1,-1,-1,-1,-1,-1,-1],"split_conditions":[-2.19E1,2E-1,1E0,3.9E-1,8E-1,4.5E0,1.7E-1,5.850335E-3,1.0042671E-1,1.03E1,4.4999525E-2,3.88E0,-2.6380846E-2,8.3E-1,-5.40998E-2,4.2641502E-2,5.1E-1,1.81E0,4E0,-4.2552155E-2,7.071988E-2,5.0820196E-3,-5.5446293E-2,1.0403275E-3,8.9654945E-2,7.999583E-2,-2.2540515E-2],"split_indices":[24,7,35,32,4,20,26,0,0,8,0,21,0,12,0,0,28,1,47,0,0,0,0,0,0,0,0],"split_type":[0,0,0,0,0,0,0,0,0,0,0,0,0,0,0,0,0,0,0,0,0,0,0,0,0,0,0],"sum_hessian":[1.379025E2,6.061443E1,7.728807E1,9.487711E0,5.112672E1,6.3097103E1,1.4190964E1,5.6683793E0,3.8193312E0,4.5934906E1,5.1918144E0,5.7009468E1,6.0876365E0,8.519572E0,5.6713905E0,6.1286645E0,3.980624E1,2.1740416E1,3.5269054E1,3.755714E0,4.763859E0,9.344143E0,3.0462097E1,1.7004875E1,4.73554E0,3.1485228E1,3.783825E0],"tree_param":{"num_deleted":"0","num_feature":"56","num_nodes":"27","size_leaf_vector":"1"}},{"base_weights":[-1.542874E-1,-2.3287801E-1,2.8070688E-1,-1.5235311E-1,-5.6048013E-2,7.247038E-1,-5.5868644E-2,4.7555697E-1,-2.1131654E-1,1.1062928E-1,2.4828967E-2,-4.243912E-2,2.6698038E-2,1.5528842E-2,7.00047E-2,-3.2790238E-1,1.04483105E-1,-4.0866606E-2,1.4670066E-2,-2.5269298E-2,5.10376E-2],"categories":[],"categories_nodes":[],"categories_segments":[],"categories_sizes":[],"default_left":[0,0,0,0,0,0,0,0,0,0,0,0,0,0,0,0,0,0,0,0,0],"id":6,"left_children":[1,3,5,7,-1,9,11,13,15,-1,-1,-1,-1,-1,-1,17,19,-1,-1,-1,-1],"loss_changes":[4.072786E0,2.5481663E0,2.7888432E0,3.1181989E0,0E0,1.1799822E0,1.4683968E0,4.1646326E-1,2.8030605E0,0E0,0E0,0E0,0E0,0E0,0E0,2.174549E0,3.178609E0,0E0,0E0,0E0,0E0],"parents":[2147483647,0,0,1,1,2,2,3,3,5,5,6,6,7,7,8,8,15,15,16,16],"right_children":[2,4,6,8,-1,10,12,14,16,-1,-1,-1,-1,-1,-1,18,20,-1,-1,-1,-1],"split_conditions":[1.6019E3,1.471E2,5E0,1.9E-1,-5.6048013E-2,1.47E0,4.1E-1,1.5E0,1.18E1,1.1062928E-1,2.4828967E-2,-4.243912E-2,2.6698038E-2,1.5528842E-2,7.00047E-2,1.37E0,1.4771E3,-4.0866606E-2,1.4670066E-2,-2.5269298E-2,5.10376E-2],"split_indices":[23,24,47,29,0,11,44,2,19,0,0,0,0,0,0,29,22,0,0,0,0],"split_type":[0,0,0,0,0,0,0,0,0,0,0,0,0,0,0,0,0,0,0,0,0],"sum_hessian":[1.1622228E2,9.883107E1,1.7391212E1,8.050734E1,1.8323725E1,7.001693E0,1.038952E1,6.304503E0,7.420284E1,3.1536322E0,3.8480606E0,4.704712E0,5.684808E0,3.295178E0,3.009325E0,5.416724E1,2.00356E1,4.640875E1,7.7584915E0,1.0858136E1,9.177464E0],"tree_param":{"num_deleted":"0","num_feature":"56","num_nodes":"21","size_leaf_vector":"1"}},{"base_weights":[-9.856694E-2,-2.5705177E-1,9.127686E-2,-7.872145E-2,-4.8289633E-1,2.368025E-1,-4.7891638E-1,-6.123937E-2,5.772881E-2,-5.956856E-1,3.953618E-3,3.8245358E-2,9.5308E-1,-6.26468E-2,-7.6880762E-3,-6.0062807E-2,2.1678612E-1,-6.673544E-2,-3.1693485E-2,2.6525623E-1,-4.1535458E-1,1.2320285E-1,3.3573832E-2,4.0970728E-2,-3.4083087E-2,6.391878E-2,-1.2512276E-2,-2.9168983E-3,-6.25983E-2],"categories":[],"categories_nodes":[],"categories_segments":[],"categories_sizes":[],"default_left":[0,0,0,0,0,0,0,0,0,0,0,0,0,0,0,0,0,0,0,0,0,0,0,0,0,0,0,0,0],"id":7,"left_children":[1,3,5,7,9,11,13,-1,15,17,-1,19,21,-1,-1,-1,23,-1,-1,25,27,-1,-1,-1,-1,-1,-1,-1,-1],"loss_changes":[3.6959295E0,2.6518054E0,4.782869E0,2.8399062E0,1.7484446E0,6.434763E0,6.502147E-1,0E0,3.4377165E0,2.707014E-1,0E0,3.885857E0,1.2797966E0,0E0,0E0,0E0,2.9553475E0,0E0,0E0,3.7362685E0,1.0082443E0,0E0,0E0,0E0,0E0,0E0,0E0,0E0,0E0],"parents":[2147483647,0,0,1,1,2,2,3,3,4,4,5,5,6,6,8,8,9,9,11,11,12,12,16,16,19,19,20,20],"right_children":[2,4,6,8,10,12,14,-1,16,18,-1,20,22,-1,-1,-1,24,-1,-1,26,28,-1,-1,-1,-1,-1,-1,-1,-1],"split_conditions":[1E0,9.3E-1,1.6564E3,1.2E0,1.93E0,2E-1,2.62E0,-6.123937E-2,2.2E-1,1.07E0,3.953618E-3,1.54E0,1E0,-6.26468E-2,-7.6880762E-3,-6.0062807E-2,1.71E0,-6.673544E-2,-3.1693485E-2,6.7E-1,1.5301E3,1.2320285E-1,3.3573832E-2,4.0970728E-2,-3.4083087E-2,6.391878E-2,-1.2512276E-2,-2.9168983E-3,-6.25983E-2],"split_indices":[36,11,23,2,11,15,37,0,55,29,0,12,38,0,0,0,49,0,0,38,23,0,0,0,0,0,0,0,0],"split_type":[0,0,0,0,0,0,0,0,0,0,0,0,0,0,0,0,0,0,0,0,0,0,0,0,0,0,0,0,0],"sum_hessian":[1.21060104E2,6.578645E1,5.5273655E1,3.7513657E1,2.8272793E1,4.450079E1,1.0772866E1,6.9282923E0,3.0585365E1,2.3137386E1,5.1354055E0,3.566703E1,8.833757E0,7.4722323E0,3.3006337E0,5.411278E0,2.5174088E1,1.7296299E1,5.8410873E0,2.404738E1,1.1619651E1,5.3986535E0,3.435104E0,1.8900316E1,6.2737713E0,1.1956899E1,1.2090482E1,4.502619E0,7.117032E0],"tree_param":{"num_deleted":"0","num_feature":"56","num_nodes":"29","size_leaf_vector":"1"}},{"base_weights":[1.6624178E-1,3.3149076E-1,-1.0052364E-1,4.4788435E-1,-2.2358292E-1,-2.3279242E-1,3.0450734E-1,5.3403974E-1,-3.906994E-2,-5.3630716E-1,4.5399215E-2,-3.7709895E-1,2.0638119E-1,1.0476603E-1,-1.6429023E-1,1.6480096E-1,6.7859703E-1,-1.6128285E-2,-6.808181E-2,1.8700562E-2,-4.893025E-1,-1.4484415E-2,7.3561125E-2,-6.2832E-2,2.8324975E-2,4.126481E-2,-4.8925247E-2,9.3440674E-2,3.8501296E-2,4.829709E-3,-6.455311E-2],"categories":[],"categories_nodes":[],"categories_segments":[],"categories_sizes":[],"default_left":[0,0,0,0,0,0,0,0,0,0,0,0,0,0,0,0,0,0,0,0,0,0,0,0,0,0,0,0,0,0,0],"id":8,"left_children":[1,3,5,7,9,11,13,15,-1,17,-1,19,21,-1,23,25,27,-1,-1,-1,29,-1,-1,-1,-1,-1,-1,-1,-1,-1,-1],"loss_changes":[5.950687E0,5.470315E0,2.8627126E0,5.197069E0,3.4378538E0,2.6033828E0,4.7924414E0,3.2527332E0,0E0,4.740486E-1,0E0,2.012393E0,2.05868E0,0E0,2.0462968E0,3.290927E0,3.018261E0,0E0,0E0,0E0,2.180439E0,0E0,0E0,0E0,0E0,0E0,0E0,0E0,0E0,0E0,0E0],"parents":[2147483647,0,0,1,1,2,2,3,3,4,4,5,5,6,6,7,7,9,9,11,11,12,12,14,14,15,15,16,16,20,20],"right_children":[2,4,6,8,10,12,14,16,-1,18,-1,20,22,-1,24,26,28,-1,-1,-1,30,-1,-1,-1,-1,-1,-1,-1,-1,-1,-1],"split_conditions":[3E0,1E0,8E0,4.7E0,2E0,1.4E-1,1.3E0,3.8E0,-3.906994E-2,4.91E-1,4.5399215E-2,5E-1,1.15E0,1.0476603E-1,5E-1,1.2E0,1.67E0,-1.6128285E-2,-6.808181E-2,1.8700562E-2,7.3E-1,-1.4484415E-2,7.3561125E-2,-6.2832E-2,2.8324975E-2,4.126481E-2,-4.8925247E-2,9.3440674E-2,3.8501296E-2,4.829709E-3,-6.455311E-2],"split_indices":[47,35,39,20,14,27,2,21,0,30,0,34,11,0,54,3,0,0,0,0,11,0,0,0,0,0,0,0,0,0,0],"split_type":[0,0,0,0,0,0,0,0,0,0,0,0,0,0,0,0,0,0,0,0,0,0,0,0,0,0,0,0,0,0,0],"sum_hessian":[1.3323322E2,8.212062E1,5.1112595E1,6.804529E1,1.4075333E1,3.885061E1,1.2261985E1,6.2035027E1,6.010261E0,9.773169E0,4.302164E0,2.9348448E1,9.50216E0,4.2654595E0,7.996526E0,1.8055754E1,4.3979275E1,3.3070383E0,6.4661303E0,4.758478E0,2.458997E1,6.1481986E0,3.3539615E0,3.7276194E0,4.2689066E0,1.3361598E1,4.6941557E0,2.2335148E1,2.1644127E1,5.692459E0,1.889751E1],"tree_param":{"num_deleted":"0","num_feature":"56","num_nodes":"31","size_leaf_vector":"1"}},{"base_weights":[-6.612888E-2,-3.2701725E-1,1.6387172E-1,4.0621776E-2,-3.907556E-1,7.839216E-1,7.45761E-2,-2.6440153E-1,-6.0300924E-2,1.0602404E-1,3.168225E-2,3.8249898E-1,-1.4018011E-1,-3.6799932E-1,4.7936425E-2,5.71149E-1,-1.9580772E-2,-4.4012272E-1,2.775029E-1,-1.030485E-2,-5.576795E-2,1.4874979E-2,8.575852E-2,-8.555709E-3,-5.9585687E-2,8.9090526E-2,-9.336645E-3],"categories":[],"categories_nodes":[],"categories_segments":[],"categories_sizes":[],"default_left":[0,0,0,0,0,0,0,0,0,0,0,0,0,0,0,0,0,0,0,0,0,0,0,0,0,0,0],"id":9,"left_children":[1,3,5,-1,7,9,11,13,-1,-1,-1,15,17,19,-1,21,-1,23,25,-1,-1,-1,-1,-1,-1,-1,-1],"loss_changes":[7.4318624E0,2.8668656E0,3.5966792E0,0E0,1.2840147E0,7.2312593E-1,3.9426587E0,2.9132018E0,0E0,0E0,0E0,2.777308E0,4.5543847E0,1.5377474E0,0E0,2.1322584E0,0E0,1.1073937E0,3.5866237E0,0E0,0E0,0E0,0E0,0E0,0E0,0E0,0E0],"parents":[2147483647,0,0,1,1,2,2,4,4,5,5,6,6,7,7,11,11,12,12,13,13,15,15,17,17,18,18],"right_children":[2,4,6,-1,8,10,12,14,-1,-1,-1,16,18,20,-1,22,-1,24,26,-1,-1,-1,-1,-1,-1,-1,-1],"split_conditions":[-4E-1,1.3819E3,3.7E0,4.0621776E-2,1.67E0,5E0,1.29E0,1.56E0,-6.0300924E-2,1.0602404E-1,3.168225E-2,3.31E-1,1.5926E3,2.27E-1,4.7936425E-2,9.1E-1,-1.9580772E-2,2E-1,4.4E-1,-1.030485E-2,-5.576795E-2,1.4874979E-2,8.575852E-2,-8.555709E-3,-5.9585687E-2,8.9090526E-2,-9.336645E-3],"split_indices":[15,22,21,0,49,39,11,49,0,0,0,32,23,31,0,11,0,26,52,0,0,0,0,0,0,0,0],"split_type":[0,0,0,0,0,0,0,0,0,0,0,0,0,0,0,0,0,0,0,0,0,0,0,0,0,0,0],"sum_hessian":[1.21962036E2,5.6946335E1,6.501571E1,4.1245885E0,5.2821743E1,7.205222E0,5.7810486E1,3.4518593E1,1.8303152E1,3.7292776E0,3.4759448E0,2.3432003E1,3.4378483E1,3.0741838E1,3.7767541E0,1.7677713E1,5.7542887E0,1.9978199E1,1.4400282E1,1.3469927E1,1.7271912E1,7.757405E0,9.920309E0,6.569823E0,1.3408377E1,4.8976183E0,9.502664E0],"tree_param":{"num_deleted":"0","num_feature":"56","num_nodes":"27","size_leaf_vector":"1"}},{"base_weights":[-6.220559E-2,1.5447261E-2,-4.1700393E-1,-2.4592037E-1,1.5282275E-1,-6.019775E-2,7.934677E-2,-3.42468E-1,4.5312446E-2,6.303695E-1,3.458618E-2,-3.021243E-2,4.3991145E-2,-5.5629694E-1,-3.1238936E-2,-1.4270571E-3,9.2096E-1,7.237509E-1,-9.770302E-2,-6.5416224E-2,-5.09611E-3,-5.7858285E-2,3.1289566E-2,1.21391535E-1,3.2525577E-2,1.10558845E-1,1.8578917E-2,2.7482525E-2,-2.7081445E-2],"categories":[],"categories_nodes":[],"categories_segments":[],"categories_sizes":[],"default_left":[0,0,0,0,0,0,0,0,0,0,0,0,0,0,0,0,0,0,0,0,0,0,0,0,0,0,0,0,0],"id":10,"left_children":[1,3,5,7,9,-1,11,13,-1,15,17,-1,-1,19,21,-1,23,25,27,-1,-1,-1,-1,-1,-1,-1,-1,-1,-1],"loss_changes":[3.47177E0,3.7773993E0,2.1246397E0,2.6029236E0,3.8679423E0,0E0,1.0991541E0,2.1412299E0,0E0,2.563304E0,5.2013507E0,0E0,0E0,9.145632E-1,2.8687434E0,0E0,1.2453995E0,1.6806626E0,3.1759753E0,0E0,0E0,0E0,0E0,0E0,0E0,0E0,0E0,0E0,0E0],"parents":[2147483647,0,0,1,1,2,2,3,3,4,4,6,6,7,7,9,9,10,10,13,13,14,14,16,16,17,17,18,18],"right_children":[2,4,6,8,10,-1,12,14,-1,16,18,-1,-1,20,22,-1,24,26,28,-1,-1,-1,-1,-1,-1,-1,-1,-1,-1],"split_conditions":[5.5E0,1.05E0,9E0,1.74E0,4.7E0,-6.019775E-2,6.2E-1,7E0,4.5312446E-2,9.8E-1,4.2E-1,-3.021243E-2,4.3991145E-2,4.67E-1,2.14E-1,-1.4270571E-3,5.73E-1,9E-1,1.7E-1,-6.5416224E-2,-5.09611E-3,-5.7858285E-2,3.1289566E-2,1.21391535E-1,3.2525577E-2,1.10558845E-1,1.8578917E-2,2.7482525E-2,-2.7081445E-2],"split_indices":[9,1,42,0,10,0,52,42,0,34,11,0,0,32,31,0,30,3,44,0,0,0,0,0,0,0,0,0,0],"split_type":[0,0,0,0,0,0,0,0,0,0,0,0,0,0,0,0,0,0,0,0,0,0,0,0,0,0,0,0,0],"sum_hessian":[1.2477821E2,1.031572E2,2.1621014E1,3.526763E1,6.788957E1,1.5596068E1,6.024946E0,3.1435986E1,3.8316472E0,1.2613474E1,5.5276096E1,3.0063553E0,3.0185907E0,1.816699E1,1.3268994E1,4.214657E0,8.398817E0,8.181796E0,4.70943E1,1.4972794E1,3.194197E0,4.8591995E0,8.409795E0,4.9343977E0,3.4644191E0,4.1681557E0,4.013641E0,1.4754879E1,3.233942E1],"tree_param":{"num_deleted":"0","num_feature":"56","num_nodes":"29","size_leaf_vector":"1"}},{"base_weights":[1.3573717E-1,-5.7665944E-2,3.215368E-1,6.777893E-2,-1.3600953E-1,3.8428813E-1,-4.424206E-2,-2.5365102E-1,3.010462E-1,4.3872914E-1,-1.8202672E-2,2.3925552E-2,-4.0471426E-1,6.4742886E-2,-1.1803783E-2,-2.4576567E-2,4.9258968E-1,-2.3143522E-2,4.652683E-2,-5.34814E-2,4.1235145E-2,7.461717E-3,5.6108303E-2],"categories":[],"categories_nodes":[],"categories_segments":[],"categories_sizes":[],"default_left":[0,0,0,0,0,0,0,0,0,0,0,0,0,0,0,0,0,0,0,0,0,0,0],"id":11,"left_children":[1,3,5,-1,7,9,-1,11,13,15,-1,17,19,-1,-1,-1,21,-1,-1,-1,-1,-1,-1],"loss_changes":[4.678358E0,3.80199E0,3.3479304E0,0E0,3.1109514E0,1.9850054E0,0E0,1.9823978E0,1.9598415E0,2.2102394E0,0E0,2.0827024E0,3.464984E0,0E0,0E0,0E0,1.4716196E0,0E0,0E0,0E0,0E0,0E0,0E0],"parents":[2147483647,0,0,1,1,2,2,4,4,5,5,7,7,8,8,9,9,11,11,12,12,16,16],"right_children":[2,4,6,-1,8,10,-1,12,14,16,-1,18,20,-1,-1,-1,22,-1,-1,-1,-1,-1,-1],"split_conditions":[-8.6E0,6.3E-1,4.8E0,6.777893E-2,8E0,1.3E1,-4.424206E-2,3E0,1E0,4.3E0,-1.8202672E-2,3.5E-1,6E0,6.4742886E-2,-1.1803783E-2,-2.4576567E-2,-4E-2,-2.3143522E-2,4.652683E-2,-5.34814E-2,4.1235145E-2,7.461717E-3,5.6108303E-2],"split_indices":[24,1,20,0,39,39,0,47,36,10,0,17,10,0,0,0,27,0,0,0,0,0,0],"split_type":[0,0,0,0,0,0,0,0,0,0,0,0,0,0,0,0,0,0,0,0,0,0,0],"sum_hessian":[1.2867627E2,6.3385983E1,6.529029E1,5.365503E0,5.802048E1,6.0793682E1,4.496606E0,4.6045998E1,1.1974482E1,5.566754E1,5.126142E0,1.6524351E1,2.9521648E1,6.25758E0,5.7169013E0,3.800851E0,5.1866688E1,1.0769014E1,5.755337E0,2.576464E1,3.7570074E0,7.5969043E0,4.4269783E1],"tree_param":{"num_deleted":"0","num_feature":"56","num_nodes":"23","size_leaf_vector":"1"}},{"base_weights":[-3.8816232E-2,1.6407612E-1,-2.4621277E-1,-3.1047744E-1,2.7069825E-1,1.5049684E-1,-3.5491523E-1,-6.2476702E-2,4.1218586E-2,5.162684E-1,1.2043505E-2,-5.4631453E-2,4.3490228E-1,3.498367E-2,-4.1866255E-1,6.4255923E-1,-1.615648E-2,1.7033982E-1,-5.809539E-2,9.122171E-2,-1.9033028E-2,1.3474422E-2,-4.9001443E-1,1.071373E-1,4.4130307E-2,-4.1616153E-2,3.6471255E-2,-5.5086512E-2,-5.135948E-3],"categories":[],"categories_nodes":[],"categories_segments":[],"categories_sizes":[],"default_left":[0,0,0,0,0,0,0,0,0,0,0,0,0,0,0,0,0,0,0,0,0,0,0,0,0,0,0,0,0],"id":12,"left_children":[1,3,5,7,9,11,13,-1,-1,15,17,-1,19,-1,21,23,-1,25,-1,-1,-1,-1,27,-1,-1,-1,-1,-1,-1],"loss_changes":[5.0017056E0,3.1300066E0,2.5849583E0,2.871714E0,3.1499498E0,2.87895E0,2.2299776E0,0E0,0E0,2.283771E0,2.466708E0,0E0,3.1644716E0,0E0,1.7633495E0,1.3970928E0,0E0,2.509584E0,0E0,0E0,0E0,0E0,9.9379635E-1,0E0,0E0,0E0,0E0,0E0,0E0],"parents":[2147483647,0,0,1,1,2,2,3,3,4,4,5,5,6,6,9,9,10,10,12,12,14,14,15,15,17,17,22,22],"right_children":[2,4,6,8,10,12,14,-1,-1,16,18,-1,20,-1,22,24,-1,26,-1,-1,-1,-1,28,-1,-1,-1,-1,-1,-1],"split_conditions":[1.5E0,9.2E-1,-4E-2,4.9E0,1.7E0,1E0,1.3819E3,-6.2476702E-2,4.1218586E-2,1.48E1,1.86E0,-5.4631453E-2,1.29E1,3.498367E-2,1.5E-1,5.1E-1,-1.615648E-2,4E0,-5.809539E-2,9.122171E-2,-1.9033028E-2,1.3474422E-2,3.14E0,1.071373E-1,4.4130307E-2,-4.1616153E-2,3.6471255E-2,-5.5086512E-2,-5.135948E-3],"split_indices":[14,0,27,9,0,45,22,0,0,8,11,0,8,0,11,28,0,39,0,0,0,0,28,0,0,0,0,0,0],"split_type":[0,0,0,0,0,0,0,0,0,0,0,0,0,0,0,0,0,0,0,0,0,0,0,0,0,0,0,0,0],"sum_hessian":[1.1690413E2,5.919934E1,5.770479E1,1.050991E1,4.868943E1,1.2328274E1,4.5376514E1,7.418874E0,3.091036E0,2.4465548E1,2.422388E1,3.306424E0,9.02185E0,3.391729E0,4.1984783E1,2.0667004E1,3.7985442E0,1.9682524E1,4.5413575E0,4.855818E0,4.1660323E0,4.693495E0,3.729129E1,5.2204447E0,1.544656E1,4.615286E0,1.5067238E1,3.2523758E1,4.7675323E0],"tree_param":{"num_deleted":"0","num_feature":"56","num_nodes":"29","size_leaf_vector":"1"}},{"base_weights":[-1.1548275E-1,-3.8681525E-1,-1.5894787E-3,2.2574972E-2,-4.9907312E-1,1.2372549E-1,-4.4682616E-1,-5.796293E-1,-1.3360664E-2,-2.1003006E-2,4.6213907E-1,1.3174377E-2,-5.8433462E-2,-6.54111E-2,-1.8237678E-2,3.5110962E-1,-1.9766408E-1,-2.1965778E-2,6.8133974E-1,7.0095114E-2,-2.7193526E-2,1.03920605E-2,-3.8172346E-2,2.1470651E-2,9.691168E-2],"categories":[],"categories_nodes":[],"categories_segments":[],"categories_sizes":[],"default_left":[0,0,0,0,0,0,0,0,0,0,0,0,0,0,0,0,0,0,0,0,0,0,0,0,0],"id":13,"left_children":[1,3,5,-1,7,9,11,13,-1,15,17,-1,-1,-1,-1,19,21,-1,23,-1,-1,-1,-1,-1,-1],"loss_changes":[3.5883217E0,2.4735003E0,4.6753154E0,0E0,7.8593445E-1,3.2128825E0,1.5411546E0,5.8282614E-1,0E0,3.1436732E0,3.0840502E0,0E0,0E0,0E0,0E0,3.5505683E0,1.8354385E0,0E0,1.8198514E0,0E0,0E0,0E0,0E0,0E0,0E0],"parents":[2147483647,0,0,1,1,2,2,4,4,5,5,6,6,7,7,9,9,10,10,15,15,16,16,18,18],"right_children":[2,4,6,-1,8,10,12,14,-1,16,18,-1,-1,-1,-1,20,22,-1,24,-1,-1,-1,-1,-1,-1],"split_conditions":[1.05E0,-1E0,1.51E1,2.2574972E-2,1.82E0,8.9E-1,1.5E-1,4E0,-1.3360664E-2,9E-1,1.2E1,1.3174377E-2,-5.8433462E-2,-6.54111E-2,-1.8237678E-2,1.22E-1,8.9E0,-2.1965778E-2,1.38E0,7.0095114E-2,-2.7193526E-2,1.03920605E-2,-3.8172346E-2,2.1470651E-2,9.691168E-2],"split_indices":[1,36,8,0,29,29,16,47,0,3,8,0,0,0,0,32,19,0,50,0,0,0,0,0,0],"split_type":[0,0,0,0,0,0,0,0,0,0,0,0,0,0,0,0,0,0,0,0,0,0,0,0,0],"sum_hessian":[1.1513576E2,3.3331795E1,8.180396E1,5.005726E0,2.8326067E1,6.440019E1,1.740377E1,2.2729933E1,5.596133E0,4.5765648E1,1.8634542E1,3.350095E0,1.4053675E1,1.8596628E1,4.1333055E0,1.4414977E1,3.1350672E1,4.533028E0,1.4101515E1,9.1514E0,5.2635775E0,1.2046938E1,1.9303734E1,6.0452204E0,8.056294E0],"tree_param":{"num_deleted":"0","num_feature":"56","num_nodes":"25","size_leaf_vector":"1"}},{"base_weights":[1.5320413E-1,3.4028548E-1,-1.356436E-1,7.922246E-2,4.8052084E-1,-2.5274426E-1,4.3418756E-1,4.352699E-1,-3.742994E-1,5.484551E-1,-8.910602E-3,5.991335E-2,-4.3029577E-1,9.32362E-2,-3.6672752E-2,7.032072E-1,-2.78887E-2,3.0533809E-3,-6.885107E-2,-6.034109E-3,6.279651E-1,2.8553727E-1,-3.6541857E-2,-5.969046E-1,1.4061977E-2,8.748038E-2,2.0032488E-2,7.123684E-2,1.7341046E-2,5.4485895E-2,-2.0251336E-2,-1.1814576E-2,-7.187428E-2],"categories":[],"categories_nodes":[],"categories_segments":[],"categories_sizes":[],"default_left":[0,0,0,0,0,0,0,0,0,0,0,0,0,0,0,0,0,0,0,0,0,0,0,0,0,0,0,0,0,0,0,0,0],"id":14,"left_children":[1,3,5,7,9,11,13,15,17,19,-1,21,23,-1,-1,25,-1,-1,-1,-1,27,29,-1,31,-1,-1,-1,-1,-1,-1,-1,-1,-1],"loss_changes":[7.044712E0,2.8500214E0,3.5545044E0,4.8077474E0,2.0271654E0,2.4381468E0,4.0000243E0,3.3680158E0,1.6986331E0,2.255578E0,0E0,1.6990255E0,2.7319384E0,0E0,0E0,8.8944006E-1,0E0,0E0,0E0,0E0,1.4345207E0,1.5555623E0,0E0,1.1832314E0,0E0,0E0,0E0,0E0,0E0,0E0,0E0,0E0,0E0],"parents":[2147483647,0,0,1,1,2,2,3,3,4,4,5,5,6,6,7,7,8,8,9,9,11,11,12,12,15,15,20,20,21,21,23,23],"right_children":[2,4,6,8,10,12,14,16,18,20,-1,22,24,-1,-1,26,-1,-1,-1,-1,28,30,-1,32,-1,-1,-1,-1,-1,-1,-1,-1,-1],"split_conditions":[3E0,1.08E0,2.04E0,1.43E0,4E-1,1.02E1,2.52E0,4.4E-1,5E-1,4.5E0,-8.910602E-3,1.38E0,6E0,9.32362E-2,-3.6672752E-2,2E0,-2.78887E-2,3.0533809E-3,-6.885107E-2,-6.034109E-3,1E0,3E0,-3.6541857E-2,5.4E-1,1.4061977E-2,8.748038E-2,2.0032488E-2,7.123684E-2,1.7341046E-2,5.4485895E-2,-2.0251336E-2,-1.1814576E-2,-7.187428E-2],"split_indices":[47,34,11,0,17,19,37,32,35,10,0,34,10,0,0,46,0,0,0,0,35,46,0,29,0,0,0,0,0,0,0,0,0],"split_type":[0,0,0,0,0,0,0,0,0,0,0,0,0,0,0,0,0,0,0,0,0,0,0,0,0,0,0,0,0,0,0,0,0],"sum_hessian":[1.2851167E2,7.788738E1,5.06243E1,2.7764933E1,5.0122444E1,4.245602E1,8.168281E0,1.55765E1,1.2188433E1,4.4814938E1,5.307509E0,1.5617352E1,2.6838669E1,4.934727E0,3.2335532E0,1.1338032E1,4.2384686E0,5.7206755E0,6.467757E0,5.2046633E0,3.9610275E1,1.0419067E1,5.198284E0,2.07405E1,6.098168E0,7.902062E0,3.4359696E0,3.2928764E1,6.6815095E0,6.7278705E0,3.6911967E0,4.6070337E0,1.6133467E1],"tree_param":{"num_deleted":"0","num_feature":"56","num_nodes":"33","size_leaf_vector":"1"}},{"base_weights":[-6.1019797E-2,3.1066239E-2,-4.882627E-1,6.1949366E-1,-3.4832258E-2,-5.702383E-1,-2.1843973E-3,9.3099356E-2,5.757808E-3,-4.2449522E-1,5.4664176E-2,-6.1846357E-2,-2.5599727E-2,-5.649789E-2,-2.1272737E-3,3.3492374E-1,-1.2573434E-1,-5.3681005E-2,4.7026336E-2,-2.8641341E-2,4.6501964E-2],"categories":[],"categories_nodes":[],"categories_segments":[],"categories_sizes":[],"default_left":[0,0,0,0,0,0,0,0,0,0,0,0,0,0,0,0,0,0,0,0,0],"id":15,"left_children":[1,3,5,7,9,11,-1,-1,-1,13,15,-1,-1,-1,-1,17,19,-1,-1,-1,-1],"loss_changes":[4.524022E0,3.7139685E0,7.6680994E-1,1.6343207E0,3.0425172E0,1.0376215E-1,0E0,0E0,0E0,9.104731E-1,3.646621E0,0E0,0E0,0E0,0E0,3.5785856E0,4.319387E0,0E0,0E0,0E0,0E0],"parents":[2147483647,0,0,1,1,2,2,3,3,4,4,5,5,9,9,10,10,15,15,16,16],"right_children":[2,4,6,8,10,12,-1,-1,-1,14,16,-1,-1,-1,-1,18,20,-1,-1,-1,-1],"split_conditions":[1.471E2,5E-1,9.11E-1,3.25E-1,3.11E-1,7.5E0,-2.1843973E-3,9.3099356E-2,5.757808E-3,3.49E-1,-4.8E1,-6.1846357E-2,-2.5599727E-2,-5.649789E-2,-2.1272737E-3,7.8E-2,1.94E0,-5.3681005E-2,4.7026336E-2,-2.8641341E-2,4.6501964E-2],"split_indices":[24,28,30,31,30,10,0,0,0,31,24,0,0,0,0,32,34,0,0,0,0],"split_type":[0,0,0,0,0,0,0,0,0,0,0,0,0,0,0,0,0,0,0,0,0],"sum_hessian":[1.13603386E2,9.42224E1,1.938099E1,8.643275E0,8.5579124E1,1.6294546E1,3.0864425E0,5.1381197E0,3.505156E0,1.5285158E1,7.029397E1,1.3287284E1,3.0072625E0,1.1038249E1,4.24691E0,2.7192406E1,4.310156E1,3.2557104E0,2.3936695E1,3.4290157E1,8.8114E0],"tree_param":{"num_deleted":"0","num_feature":"56","num_nodes":"21","size_leaf_vector":"1"}},{"base_weights":[-9.048602E-2,-1.1618998E-2,-4.498287E-1,4.1191092E-1,-1.009065E-1,-5.7443697E-2,2.5519654E-3,6.4768213E-1,-3.2809258E-2,-1.9706409E-1,2.1416235E-1,-1.5115253E-2,1.0046778E-1,-3.8593602E-1,2.7267499E-2,-5.4359835E-2,4.3625873E-1,2.9094517E-2,-4.8467968E-2,5.3553622E-2,-1.1018396E-2,-3.457638E-2,7.271789E-2],"categories":[],"categories_nodes":[],"categories_segments":[],"categories_sizes":[],"default_left":[0,0,0,0,0,0,0,0,0,0,0,0,0,0,0,0,0,0,0,0,0,0,0],"id":16,"left_children":[1,3,5,7,9,-1,-1,11,-1,13,15,-1,-1,17,19,-1,21,-1,-1,-1,-1,-1,-1],"loss_changes":[3.1114535E0,3.4906597E0,1.1854467E0,3.0174875E0,2.3486705E0,0E0,0E0,3.7247949E0,0E0,2.5039752E0,3.3137465E0,0E0,0E0,2.2808838E0,2.0035295E0,0E0,3.5939686E0,0E0,0E0,0E0,0E0,0E0,0E0],"parents":[2147483647,0,0,1,1,2,2,3,3,4,4,7,7,9,9,10,10,13,13,14,14,16,16],"right_children":[2,4,6,8,10,-1,-1,12,-1,14,16,-1,-1,18,20,-1,22,-1,-1,-1,-1,-1,-1],"split_conditions":[5.5E0,6.7E-2,2.6E-1,8.3E-1,3E-1,-5.7443697E-2,2.5519654E-3,5E-1,-3.2809258E-2,1.6E0,5.1E-1,-1.5115253E-2,1.0046778E-1,1.1E0,3.5E0,-5.4359835E-2,7.1E-1,2.9094517E-2,-4.8467968E-2,5.3553622E-2,-1.1018396E-2,-3.457638E-2,7.271789E-2],"split_indices":[9,32,26,38,15,0,0,4,0,14,28,0,0,14,21,0,29,0,0,0,0,0,0],"split_type":[0,0,0,0,0,0,0,0,0,0,0,0,0,0,0,0,0,0,0,0,0,0,0],"sum_hessian":[1.0897349E2,9.0207466E1,1.876602E1,1.5077053E1,7.513041E1,1.4703244E1,4.062776E0,1.152868E1,3.548374E0,5.7849533E1,1.728088E1,3.7388978E0,7.7897816E0,3.1015884E1,2.6833649E1,3.5888078E0,1.3692072E1,3.700784E0,2.73151E1,5.095457E0,2.1738192E1,3.661385E0,1.0030686E1],"tree_param":{"num_deleted":"0","num_feature":"56","num_nodes":"23","size_leaf_vector":"1"}},{"base_weights":[1.0119028E-1,2.9416925E-1,-5.5298273E-2,-2.5480586E-1,4.0085372E-1,4.123062E-1,-1.7380984E-1,2.3234313E-2,-5.3843707E-2,1.0826867E-1,5.2033156E-1,8.411125E-2,8.317798E-2,-3.2831138E-1,2.4131742E-1,4.226193E-1,-3.0666921E-2,6.1507386E-1,-4.406291E-3,-3.289489E-2,6.2215496E-2,-5.534885E-1,-1.2347686E-1,-4.0210973E-2,4.3594697E-1,-1.7218588E-2,7.848525E-2,7.28169E-2,1.9794267E-3,-1.9940598E-2,-7.215937E-2,-2.8034365E-2,5.3623497E-2,9.205472E-4,6.770628E-2],"categories":[],"categories_nodes":[],"categories_segments":[],"categories_sizes":[],"default_left":[0,0,0,0,0,0,0,0,0,0,0,0,0,0,0,0,0,0,0,0,0,0,0,0,0,0,0,0,0,0,0,0,0,0,0],"id":17,"left_children":[1,3,5,7,9,11,13,-1,-1,15,17,-1,19,21,23,25,-1,27,-1,-1,-1,29,31,-1,33,-1,-1,-1,-1,-1,-1,-1,-1,-1,-1],"loss_changes":[3.8866186E0,3.4725528E0,4.0402455E0,1.5033785E0,1.6416421E0,2.0155067E0,3.788764E0,0E0,0E0,2.131331E0,1.8572512E0,0E0,2.3081446E0,1.8953142E0,2.211988E0,2.1070242E0,0E0,1.9631062E0,0E0,0E0,0E0,1.0461278E0,2.5906389E0,0E0,1.3279305E0,0E0,0E0,0E0,0E0,0E0,0E0,0E0,0E0,0E0,0E0],"parents":[2147483647,0,0,1,1,2,2,3,3,4,4,5,5,6,6,9,9,10,10,12,12,13,13,14,14,15,15,17,17,21,21,22,22,24,24],"right_children":[2,4,6,8,10,12,14,-1,-1,16,18,-1,20,22,24,26,-1,28,-1,-1,-1,30,32,-1,34,-1,-1,-1,-1,-1,-1,-1,-1,-1,-1],"split_conditions":[3.3E0,1.4074E3,1.4E-1,1.12E0,3.6E0,1.3E0,8E0,2.3234313E-2,-5.3843707E-2,3.3E0,8.53E-1,8.411125E-2,7.1E-1,4.4E0,-7E-1,8.9E-1,-3.0666921E-2,1E1,-4.406291E-3,-3.289489E-2,6.2215496E-2,3.8E-1,3.92E-1,-4.0210973E-2,1.2E0,-1.7218588E-2,7.848525E-2,7.28169E-2,1.9794267E-3,-1.9940598E-2,-7.215937E-2,-2.8034365E-2,5.3623497E-2,9.205472E-4,6.770628E-2],"split_indices":[20,22,17,37,21,2,42,0,0,21,30,0,54,9,15,37,0,39,0,0,0,54,32,0,14,0,0,0,0,0,0,0,0,0,0],"split_type":[0,0,0,0,0,0,0,0,0,0,0,0,0,0,0,0,0,0,0,0,0,0,0,0,0,0,0,0,0,0,0,0,0,0,0],"sum_hessian":[1.27161575E2,5.6547886E1,7.061369E1,8.975174E0,4.7572712E1,1.3776699E1,5.683699E1,3.3692193E0,5.6059546E0,1.4346429E1,3.322628E1,5.3069444E0,8.469755E0,4.157339E1,1.52636E1,8.152048E0,6.1943803E0,2.8373549E1,4.852732E0,5.020515E0,3.4492402E0,1.8992535E1,2.2580856E1,3.2972324E0,1.1966369E1,3.2840796E0,4.867969E0,2.3655993E1,4.717557E0,6.8179617E0,1.2174573E1,1.87076E1,3.8732557E0,4.695018E0,7.2713504E0],"tree_param":{"num_deleted":"0","num_feature":"56","num_nodes":"35","size_leaf_vector":"1"}},{"base_weights":[-5.4884076E-2,-3.1061998E-1,1.332846E-1,1.1161893E-1,-3.84809E-1,-2.0031385E-1,3.1053495E-1,-3.3781532E-2,5.8754005E-2,2.1142151E-2,-4.5340717E-1,2.9160827E-1,-4.3088055E-1,-2.788665E-1,4.3102193E-1,-5.1431394E-1,1.1796922E-2,7.34372E-2,-3.0651713E-2,-1.758112E-1,-6.1966326E-2,1.7387016E-2,-5.805109E-2,7.640384E-1,1.09009795E-1,-5.8672197E-2,-2.3293894E-4,-5.4112285E-2,1.5069726E-2,-5.7991436E-3,9.300553E-2,6.328765E-2,-1.3350435E-2],"categories":[],"categories_nodes":[],"categories_segments":[],"categories_sizes":[],"default_left":[0,0,0,0,0,0,0,0,0,0,0,0,0,0,0,0,0,0,0,0,0,0,0,0,0,0,0,0,0,0,0,0,0],"id":18,"left_children":[1,3,5,7,9,11,13,-1,-1,-1,15,17,19,21,23,25,-1,-1,-1,27,-1,-1,-1,29,31,-1,-1,-1,-1,-1,-1,-1,-1],"loss_changes":[5.6831603E0,1.6091504E0,4.0974026E0,1.9624913E0,1.8443708E0,2.8801954E0,3.3127756E0,0E0,0E0,0E0,1.4059806E0,2.4355547E0,7.067294E-1,1.225884E0,3.9615026E0,1.300601E0,0E0,0E0,0E0,1.107434E0,0E0,0E0,0E0,2.5617428E0,2.6689262E0,0E0,0E0,0E0,0E0,0E0,0E0,0E0,0E0],"parents":[2147483647,0,0,1,1,2,2,3,3,4,4,5,5,6,6,10,10,11,11,12,12,13,13,14,14,15,15,19,19,23,23,24,24],"right_children":[2,4,6,8,10,12,14,-1,-1,-1,16,18,20,22,24,26,-1,-1,-1,28,-1,-1,-1,30,32,-1,-1,-1,-1,-1,-1,-1,-1],"split_conditions":[-5E-1,2.4E-1,2E0,2E0,7.9E-1,-1.489E2,1.09E1,-3.3781532E-2,5.8754005E-2,2.1142151E-2,1.4E1,1.43E0,2.1E-1,4.3E-1,1.27E0,2.97E0,1.1796922E-2,7.34372E-2,-3.0651713E-2,-7E-2,-6.1966326E-2,1.7387016E-2,-5.805109E-2,9.5E-1,7.1E-1,-5.8672197E-2,-2.3293894E-4,-5.4112285E-2,1.5069726E-2,-5.7991436E-3,9.300553E-2,6.328765E-2,-1.3350435E-2],"split_indices":[15,7,43,46,28,24,8,0,0,0,42,29,25,55,11,28,0,0,0,27,0,0,0,0,28,0,0,0,0,0,0,0,0],"split_type":[0,0,0,0,0,0,0,0,0,0,0,0,0,0,0,0,0,0,0,0,0,0,0,0,0,0,0,0,0,0,0,0,0],"sum_hessian":[1.1623993E2,4.8997604E1,6.7242325E1,7.24708E0,4.1750526E1,2.3286072E1,4.3956253E1,3.8765044E0,3.3705754E0,4.0930653E0,3.765746E1,7.3467584E0,1.5939313E1,7.2374434E0,3.6718807E1,3.4120228E1,3.5372326E0,4.0907683E0,3.2559898E0,7.600867E0,8.338447E0,3.063317E0,4.174126E0,1.737615E1,1.9342657E1,2.976474E1,4.3554864E0,3.2770557E0,4.323811E0,3.0289652E0,1.4347186E1,5.6114473E0,1.3731211E1],"tree_param":{"num_deleted":"0","num_feature":"56","num_nodes":"33","size_leaf_vector":"1"}},{"base_weights":[-5.503763E-2,1.0528963E-2,-4.1499484E-1,-1.09195575E-1,4.3172163E-1,3.7194144E-2,-6.252455E-2,-1.6955495E-1,2.7342114E-1,6.605742E-1,-1.70659E-2,-3.3710155E-1,-5.6570824E-3,6.66506E-2,-3.4337495E-2,2.0604259E-1,9.182564E-1,-5.082565E-2,-3.4866128E-3,5.7648152E-2,-1.8448548E-2,4.2186353E-2,-6.153473E-3,1.11385204E-1,3.729294E-2],"categories":[],"categories_nodes":[],"categories_segments":[],"categories_sizes":[],"default_left":[0,0,0,0,0,0,0,0,0,0,0,0,0,0,0,0,0,0,0,0,0,0,0,0,0],"id":19,"left_children":[1,3,5,7,9,-1,-1,11,13,15,-1,17,19,-1,-1,21,23,-1,-1,-1,-1,-1,-1,-1,-1],"loss_changes":[2.687293E0,4.9454737E0,3.1347291E0,1.8115907E0,3.1044617E0,0E0,0E0,1.8279915E0,2.8468025E0,1.6768565E0,0E0,1.6859674E0,3.7189896E0,0E0,0E0,4.3329892E-1,6.382952E-1,0E0,0E0,0E0,0E0,0E0,0E0,0E0,0E0],"parents":[2147483647,0,0,1,1,2,2,3,3,4,4,7,7,8,8,9,9,11,11,12,12,15,15,16,16],"right_children":[2,4,6,8,10,-1,-1,12,14,16,-1,18,20,-1,-1,22,24,-1,-1,-1,-1,-1,-1,-1,-1],"split_conditions":[5.5E0,1.5422E3,1.5E-1,4E-1,4E-1,3.7194144E-2,-6.252455E-2,1.46E0,3.9E-1,9.5E-1,-1.70659E-2,2E0,1.7E-1,6.66506E-2,-3.4337495E-2,1.47E0,1.5857E3,-5.082565E-2,-3.4866128E-3,5.7648152E-2,-1.8448548E-2,4.2186353E-2,-6.153473E-3,1.11385204E-1,3.729294E-2],"split_indices":[9,22,16,17,16,0,0,0,41,37,0,46,17,0,0,34,22,0,0,0,0,0,0,0,0],"split_type":[0,0,0,0,0,0,0,0,0,0,0,0,0,0,0,0,0,0,0,0,0,0,0,0,0],"sum_hessian":[1.1267758E2,9.6136894E1,1.654069E1,7.543511E1,2.0701778E1,3.3253534E0,1.3215335E1,6.56374E1,9.797717E0,1.4932219E1,5.769559E0,3.1934837E1,3.3702557E1,5.9348416E0,3.8628752E0,6.053648E0,8.878571E0,1.995355E1,1.1981288E1,7.397589E0,2.630497E1,3.0317295E0,3.0219185E0,5.7674036E0,3.1111674E0],"tree_param":{"num_deleted":"0","num_feature":"56","num_nodes":"25","size_leaf_vector":"1"}},{"base_weights":[8.246415E-2,-3.444277E-2,2.9877514E-1,5.6097716E-1,-9.193988E-2,4.1739362E-1,-4.081532E-1,8.151537E-2,1.7937949E-2,-1.9786197E-1,2.3373286E-1,1.4171135E-1,7.4002206E-1,-1.1104713E-2,-6.0384136E-2,-2.4873167E-1,5.477196E-2,5.6745005E-1,-3.3073065E-1,-4.7933397E-1,4.164991E-1,2.2470232E-2,8.395262E-1,-5.788286E-3,-5.894201E-2,7.412768E-2,3.9660214E-3,-6.1618496E-2,8.519509E-3,-2.0986777E-2,-6.382499E-2,-4.2491812E-2,6.567713E-2,5.2486546E-2,9.8005295E-2],"categories":[],"categories_nodes":[],"categories_segments":[],"categories_sizes":[],"default_left":[0,0,0,0,0,0,0,0,0,0,0,0,0,0,0,0,0,0,0,0,0,0,0,0,0,0,0,0,0,0,0,0,0,0,0],"id":20,"left_children":[1,3,5,7,9,11,13,-1,-1,15,17,19,21,-1,-1,23,-1,25,27,29,31,-1,33,-1,-1,-1,-1,-1,-1,-1,-1,-1,-1,-1,-1],"loss_changes":[3.413217E0,3.072838E0,4.137919E0,6.212225E-1,2.8520951E0,3.542737E0,3.576001E-1,0E0,0E0,2.48463E0,4.034318E0,4.1846414E0,7.681513E-1,0E0,0E0,3.7793648E0,0E0,1.1817646E0,1.0283191E0,1.9268656E-1,3.6600423E0,0E0,1.610012E-1,0E0,0E0,0E0,0E0,0E0,0E0,0E0,0E0,0E0,0E0,0E0,0E0],"parents":[2147483647,0,0,1,1,2,2,3,3,4,4,5,5,6,6,9,9,10,10,11,11,12,12,15,15,17,17,18,18,19,19,20,20,22,22],"right_children":[2,4,6,8,10,12,14,-1,-1,16,18,20,22,-1,-1,24,-1,26,28,30,32,-1,34,-1,-1,-1,-1,-1,-1,-1,-1,-1,-1,-1,-1],"split_conditions":[5.5E-1,6.3E-1,3.2E-1,1E0,7.1E-1,2E0,-7.08E1,8.151537E-2,1.7937949E-2,6E-1,2.7E-1,1.6E0,-1.17E0,-1.1104713E-2,-6.0384136E-2,1.5E0,5.477196E-2,3E0,1.23E0,1.3E0,5.15E-1,2.2470232E-2,4.5E-1,-5.788286E-3,-5.894201E-2,7.412768E-2,3.9660214E-3,-6.1618496E-2,8.519509E-3,-2.0986777E-2,-6.382499E-2,-4.2491812E-2,6.567713E-2,5.2486546E-2,9.8005295E-2],"split_indices":[5,1,26,45,52,46,24,0,0,16,16,2,35,0,0,50,0,47,1,2,30,0,29,0,0,0,0,0,0,0,0,0,0,0,0],"split_type":[0,0,0,0,0,0,0,0,0,0,0,0,0,0,0,0,0,0,0,0,0,0,0,0,0,0,0,0,0,0,0,0,0,0,0],"sum_hessian":[1.335655E2,8.725087E1,4.631463E1,6.912353E0,8.033852E1,4.001064E1,6.3039885E0,3.4669251E0,3.445428E0,6.091796E1,1.9420559E1,2.2351112E1,1.7659527E1,3.125749E0,3.178239E0,5.7650932E1,3.2670288E0,1.2201565E1,7.2189937E0,6.6276474E0,1.5723466E1,3.3853621E0,1.4274165E1,3.7701168E1,1.9949762E1,8.874328E0,3.3272371E0,3.9954176E0,3.223576E0,3.3195183E0,3.308129E0,3.3219013E0,1.2401565E1,5.8685584E0,8.405606E0],"tree_param":{"num_deleted":"0","num_feature":"56","num_nodes":"35","size_leaf_vector":"1"}},{"base_weights":[-4.023478E-2,-3.7497696E-1,7.064408E-2,-5.446372E-1,1.2713654E-1,-5.701324E-2,1.3026768E-1,-6.286961E-2,-3.019139E-3,-3.2512464E-2,5.6662947E-2,1.0186838E-1,6.997498E-2,7.796178E-2,1.5685916E-2,-5.9334666E-2,8.025252E-3],"categories":[],"categories_nodes":[],"categories_segments":[],"categories_sizes":[],"default_left":[0,0,0,0,0,0,0,0,0,0,0,0,0,0,0,0,0],"id":21,"left_children":[1,3,5,7,9,-1,11,-1,-1,-1,-1,-1,13,-1,15,-1,-1],"loss_changes":[4.2127295E0,2.473475E0,3.3433561E0,9.0141535E-1,1.762121E0,0E0,4.165496E0,0E0,0E0,0E0,0E0,0E0,2.8827205E0,0E0,2.8326225E0,0E0,0E0],"parents":[2147483647,0,0,1,1,2,2,3,3,4,4,6,6,12,12,14,14],"right_children":[2,4,6,8,10,-1,12,-1,-1,-1,-1,-1,14,-1,16,-1,-1],"split_conditions":[1.9E-1,1.4E0,1.3984E3,2.16E0,1.4379E3,-5.701324E-2,8.1E-1,-6.286961E-2,-3.019139E-3,-3.2512464E-2,5.6662947E-2,1.0186838E-1,-2.434E2,7.796178E-2,3.3E0,-5.9334666E-2,8.025252E-3],"split_indices":[31,3,23,1,22,0,12,0,0,0,0,0,24,0,9,0,0],"split_type":[0,0,0,0,0,0,0,0,0,0,0,0,0,0,0,0,0],"sum_hessian":[1.11788506E2,2.7222422E1,8.4566086E1,2.0283945E1,6.9384766E0,6.470053E0,7.809603E1,1.7244211E1,3.0397348E0,3.5478163E0,3.3906603E0,3.9529822E0,7.414305E1,4.3195324E0,6.982352E1,5.9077973E0,6.391572E1],"tree_param":{"num_deleted":"0","num_feature":"56","num_nodes":"17","size_leaf_vector":"1"}},{"base_weights":[-1.1992358E-1,-2.1435001E-1,1.5740977E-1,7.149408E-2,-3.404126E-1,-8.6112306E-2,5.38738E-1,-2.2207086E-1,3.4969428E-1,-4.54069E-1,-2.874924E-2,3.5805333E-1,-5.0399955E-2,8.6774625E-2,1.54382875E-2,-4.5065564E-1,4.305845E-2,-2.9247591E-2,7.724902E-1,-1.4253822E-1,-5.594902E-1,4.8864614E-2,-3.6503384E-1,-1.2082726E-2,9.018235E-2,-9.089413E-3,-5.971551E-2,1.006274E-1,3.1780288E-2,-5.7091363E-2,3.5363432E-2,-6.1343282E-2,-1.009488E-2,6.223277E-3,-5.846153E-2],"categories":[],"categories_nodes":[],"categories_segments":[],"categories_sizes":[],"default_left":[0,0,0,0,0,0,0,0,0,0,0,0,0,0,0,0,0,0,0,0,0,0,0,0,0,0,0,0,0,0,0,0,0,0,0],"id":22,"left_children":[1,3,5,7,9,11,13,15,17,19,21,23,-1,-1,-1,25,-1,-1,27,29,31,-1,33,-1,-1,-1,-1,-1,-1,-1,-1,-1,-1,-1,-1],"loss_changes":[2.9715152E0,3.0552247E0,2.7459433E0,2.247493E0,2.0606833E0,3.6334114E0,1.316165E0,2.2138627E0,4.0350604E0,1.32691E0,3.0860872E0,2.6095123E0,0E0,0E0,0E0,4.9994564E-1,0E0,0E0,6.0865784E-1,2.7888572E0,7.2118187E-1,0E0,1.0403488E0,0E0,0E0,0E0,0E0,0E0,0E0,0E0,0E0,0E0,0E0,0E0,0E0],"parents":[2147483647,0,0,1,1,2,2,3,3,4,4,5,5,6,6,7,7,8,8,9,9,10,10,11,11,15,15,18,18,19,19,20,20,22,22],"right_children":[2,4,6,8,10,12,14,16,18,20,22,24,-1,-1,-1,26,-1,-1,28,30,32,-1,34,-1,-1,-1,-1,-1,-1,-1,-1,-1,-1,-1,-1],"split_conditions":[3.5E-1,7.2E-1,2.5E-1,1.4E0,4E0,-5E-1,2E0,1.12E0,1.8E-2,4E0,1.6E0,4E0,-5.0399955E-2,8.6774625E-2,1.54382875E-2,5.6E-1,4.305845E-2,-2.9247591E-2,6.7E-2,2.68E-1,1.67E0,4.8864614E-2,5.7E-1,-1.2082726E-2,9.018235E-2,-9.089413E-3,-5.971551E-2,1.006274E-1,3.1780288E-2,-5.7091363E-2,3.5363432E-2,-6.1343282E-2,-1.009488E-2,6.223277E-3,-5.846153E-2],"split_indices":[17,11,32,1,47,15,43,12,32,42,12,45,0,0,0,54,0,0,32,31,11,0,52,0,0,0,0,0,0,0,0,0,0,0,0],"split_type":[0,0,0,0,0,0,0,0,0,0,0,0,0,0,0,0,0,0,0,0,0,0,0,0,0,0,0,0,0,0,0,0,0,0,0],"sum_hessian":[1.1118191E2,8.311129E1,2.8070621E1,2.5568394E1,5.7542896E1,1.7603153E1,1.0467467E1,1.2538822E1,1.3029571E1,4.183113E1,1.5711764E1,8.602682E0,9.000471E0,4.9621744E0,5.505293E0,9.515601E0,3.0232215E0,5.295163E0,7.7344074E0,1.1171186E1,3.0659945E1,6.0107565E0,9.701008E0,4.9878464E0,3.6148362E0,3.2224965E0,6.293104E0,4.306863E0,3.4275448E0,5.914344E0,5.256842E0,2.7130527E1,3.5294158E0,3.5363948E0,6.164613E0],"tree_param":{"num_deleted":"0","num_feature":"56","num_nodes":"35","size_leaf_vector":"1"}},{"base_weights":[1.2603796E-1,5.037394E-2,4.579684E-1,6.747121E-2,9.770573E-3,5.702657E-1,-2.0741435E-2,-6.45684E-2,2.8502217E-1,6.6332E-1,1.11539485E-2,1.136166E-1,-2.537713E-1,-1.4458898E-1,4.894633E-1,1.4352328E-2,7.784667E-1,6.814294E-2,-1.9301455E-3,-1.5883416E-2,-5.8598913E-2,2.4546359E-2,-4.655257E-2,-1.7767139E-2,6.826755E-2,3.4834024E-2,8.8204384E-2],"categories":[],"categories_nodes":[],"categories_segments":[],"categories_sizes":[],"default_left":[0,0,0,0,0,0,0,0,0,0,0,0,0,0,0,0,0,0,0,0,0,0,0,0,0,0,0],"id":23,"left_children":[1,3,5,-1,7,9,-1,11,13,15,-1,17,19,21,23,-1,25,-1,-1,-1,-1,-1,-1,-1,-1,-1,-1],"loss_changes":[3.3788877E0,2.8182516E0,1.9879065E0,0E0,2.1800606E0,8.512473E-1,0E0,2.860522E0,2.0600567E0,9.5470667E-1,0E0,3.3299518E0,1.2015278E0,1.1251006E0,2.128802E0,0E0,3.3251953E-1,0E0,0E0,0E0,0E0,0E0,0E0,0E0,0E0,0E0,0E0],"parents":[2147483647,0,0,1,1,2,2,4,4,5,5,7,7,8,8,9,9,11,11,12,12,13,13,14,14,16,16],"right_children":[2,4,6,-1,8,10,-1,12,14,16,-1,18,20,22,24,-1,26,-1,-1,-1,-1,-1,-1,-1,-1,-1,-1],"split_conditions":[1.51E1,-8E-1,3.1E-1,6.747121E-2,1.7E0,1.11E1,-2.0741435E-2,1.43E0,7.1E-1,8E-3,1.11539485E-2,4.5E-1,4.8E0,8.2E-1,2.14E0,1.4352328E-2,7.1E-1,6.814294E-2,-1.9301455E-3,-1.5883416E-2,-5.8598913E-2,2.4546359E-2,-4.655257E-2,-1.7767139E-2,6.826755E-2,3.4834024E-2,8.8204384E-2],"split_indices":[8,4,18,0,2,19,0,0,11,32,0,29,9,37,51,0,50,0,0,0,0,0,0,0,0,0,0],"split_type":[0,0,0,0,0,0,0,0,0,0,0,0,0,0,0,0,0,0,0,0,0,0,0,0,0,0,0],"sum_hessian":[1.3445418E2,1.10432655E2,2.4021519E1,5.7897253E0,1.0464293E2,2.0675112E1,3.3464081E0,8.2993706E1,2.1649223E1,1.6817596E1,3.8575144E0,4.2947075E1,4.004663E1,7.0748796E0,1.4574343E1,3.4572542E0,1.3360343E1,7.3636403E0,3.5583435E1,3.229567E1,7.7509584E0,3.2997146E0,3.7751648E0,3.2910929E0,1.128325E1,3.4396303E0,9.920712E0],"tree_param":{"num_deleted":"0","num_feature":"56","num_nodes":"27","size_leaf_vector":"1"}},{"base_weights":[-5.04955E-2,-2.7098027E-1,1.2133286E-1,5.296424E-2,-3.4036413E-1,3.9331785E-1,-7.1488425E-2,-1.6117005E-1,-6.253147E-2,5.810448E-1,-2.1201834E-1,4.967675E-1,-2.0779283E-1,4.6594266E-2,-4.4461533E-1,7.405202E-1,1.6852172E-1,-5.3064268E-2,1.7548535E-2,9.969833E-3,7.2908364E-2,3.7307423E-2,-5.199088E-1,-3.0363828E-2,3.9733924E-2,-6.946308E-3,-5.7551015E-2,1.0682928E-2,9.02232E-2,3.952526E-2,-9.749274E-3,3.23143E-2,-4.6844464E-2,-6.331966E-2,-1.2086716E-2],"categories":[],"categories_nodes":[],"categories_segments":[],"categories_sizes":[],"default_left":[0,0,0,0,0,0,0,0,0,0,0,0,0,0,0,0,0,0,0,0,0,0,0,0,0,0,0,0,0,0,0,0,0,0,0],"id":24,"left_children":[1,3,5,-1,7,9,11,13,-1,15,17,19,21,23,25,27,29,-1,-1,-1,-1,31,33,-1,-1,-1,-1,-1,-1,-1,-1,-1,-1,-1,-1],"loss_changes":[4.429111E0,3.0207415E0,3.4845524E0,0E0,2.3330188E0,3.247623E0,3.1559057E0,1.823305E0,0E0,1.2734284E0,9.871458E-1,6.578562E-1,2.505052E0,2.401573E0,6.0043764E-1,1.4441729E0,4.7401285E-1,0E0,0E0,0E0,0E0,2.9172964E0,5.725975E-1,0E0,0E0,0E0,0E0,0E0,0E0,0E0,0E0,0E0,0E0,0E0,0E0],"parents":[2147483647,0,0,1,1,2,2,4,4,5,5,6,6,7,7,9,9,10,10,11,11,12,12,13,13,14,14,15,15,16,16,21,21,22,22],"right_children":[2,4,6,-1,8,10,12,14,-1,16,18,20,22,24,26,28,30,-1,-1,-1,-1,32,34,-1,-1,-1,-1,-1,-1,-1,-1,-1,-1,-1,-1],"split_conditions":[-5E-1,1.3818E3,1.27E0,5.296424E-2,6.7E-1,4E0,5.1E-1,5.3E-1,-6.253147E-2,3E0,3.3E0,5.6E0,3E-1,1.6E0,2.67E0,-2E-1,1.51E3,-5.3064268E-2,1.7548535E-2,9.969833E-3,7.2908364E-2,5E-1,5.7E-1,-3.0363828E-2,3.9733924E-2,-6.946308E-3,-5.7551015E-2,1.0682928E-2,9.02232E-2,3.952526E-2,-9.749274E-3,3.23143E-2,-4.6844464E-2,-6.331966E-2,-1.2086716E-2],"split_indices":[15,22,11,0,29,45,28,5,0,46,20,10,15,28,20,4,23,0,0,0,0,38,53,0,0,0,0,0,0,0,0,0,0,0,0],"split_type":[0,0,0,0,0,0,0,0,0,0,0,0,0,0,0,0,0,0,0,0,0,0,0,0,0,0,0,0,0,0,0,0,0,0,0],"sum_hessian":[1.1503985E2,5.0133312E1,6.490654E1,3.469151E0,4.666416E1,2.6494621E1,3.841192E1,2.9609518E1,1.7054644E1,2.0253677E1,6.240944E0,6.9195647E0,3.1492352E1,1.7567917E1,1.2041602E1,1.4033448E1,6.220228E0,3.222149E0,3.018795E0,3.0816433E0,3.8379214E0,1.8133131E1,1.3359221E1,8.857581E0,8.710336E0,3.5106246E0,8.530977E0,3.1907299E0,1.0842719E1,3.0957828E0,3.1244452E0,1.1816098E1,6.3170323E0,9.948153E0,3.4110694E0],"tree_param":{"num_deleted":"0","num_feature":"56","num_nodes":"35","size_leaf_vector":"1"}},{"base_weights":[-5.8000594E-2,-3.1739184E-1,2.595675E-2,-4.6345475E-1,1.4443216E-1,3.7788397E-1,-5.1493566E-2,-2.1079308E-1,-6.165112E-2,7.7266335E-2,-5.0622087E-2,9.5231704E-2,1.0145865E-1,-5.1547926E-2,2.153191E-2,-5.683441E-2,2.420381E-2,3.8001233E-1,-5.0884753E-2,3.5080576E-1,-1.16838E-1,9.278204E-2,-6.8658143E-3,-1.1168384E-2,6.927816E-2,9.51771E-3,-3.9176133E-2],"categories":[],"categories_nodes":[],"categories_segments":[],"categories_sizes":[],"default_left":[0,0,0,0,0,0,0,0,0,0,0,0,0,0,0,0,0,0,0,0,0,0,0,0,0,0,0],"id":25,"left_children":[1,3,5,7,9,11,13,15,-1,-1,-1,17,-1,-1,19,-1,-1,21,-1,23,25,-1,-1,-1,-1,-1,-1],"loss_changes":[2.4912198E0,1.9526491E0,2.3924246E0,7.005367E-1,3.448428E0,2.7510672E0,2.4586496E0,1.6953274E0,0E0,0E0,0E0,2.2684343E0,0E0,0E0,2.9283507E0,0E0,0E0,2.2192645E0,0E0,3.0825822E0,2.681908E0,0E0,0E0,0E0,0E0,0E0,0E0],"parents":[2147483647,0,0,1,1,2,2,3,3,4,4,5,5,6,6,7,7,11,11,14,14,17,17,19,19,20,20],"right_children":[2,4,6,8,10,12,14,16,-1,-1,-1,18,-1,-1,20,-1,-1,22,-1,24,26,-1,-1,-1,-1,-1,-1],"split_conditions":[1.2E0,5E0,1.4277E3,3.8E-1,1.6089E3,1.04E0,1.4517E3,3.3E-1,-6.165112E-2,7.7266335E-2,-5.0622087E-2,4.82E-1,1.0145865E-1,-5.1547926E-2,6.4E-1,-5.683441E-2,2.420381E-2,1E0,-5.0884753E-2,0E0,1.1E-1,9.278204E-2,-6.8658143E-3,-1.1168384E-2,6.927816E-2,9.51771E-3,-3.9176133E-2],"split_indices":[2,47,22,54,23,1,22,52,0,0,0,30,0,0,11,0,0,11,0,36,27,0,0,0,0,0,0],"split_type":[0,0,0,0,0,0,0,0,0,0,0,0,0,0,0,0,0,0,0,0,0,0,0,0,0,0,0],"sum_hessian":[1.1301433E2,2.6954964E1,8.6059364E1,2.047555E1,6.4794145E0,1.4823531E1,7.123583E1,8.621171E0,1.1854378E1,3.201103E0,3.2783113E0,1.1062229E1,3.7613018E0,8.863088E0,6.2372746E1,4.674858E0,3.9463127E0,7.7700996E0,3.2921295E0,1.8001043E1,4.4371704E1,3.017691E0,4.7524085E0,7.9384556E0,1.0062587E1,2.5421207E1,1.8950497E1],"tree_param":{"num_deleted":"0","num_feature":"56","num_nodes":"27","size_leaf_vector":"1"}},{"base_weights":[3.6781106E-2,3.978604E-1,-1.7958436E-2,6.8483716E-1,-2.205055E-2,3.3742033E-2,-4.4667685E-1,8.572036E-2,1.9861752E-2,-2.902755E-3,6.865875E-2,-8.513399E-3,-5.5853732E-2,-9.7613424E-2,2.8938508E-1,-1.7941969E-2,3.3147503E-2,4.926844E-2,-5.1745094E-2],"categories":[],"categories_nodes":[],"categories_segments":[],"categories_sizes":[],"default_left":[0,0,0,0,0,0,0,0,0,0,0,0,0,0,0,0,0,0,0],"id":26,"left_children":[1,3,5,7,-1,9,11,-1,-1,13,-1,-1,-1,15,17,-1,-1,-1,-1],"loss_changes":[2.5502558E0,3.1644108E0,2.512713E0,8.221922E-1,0E0,2.429917E0,4.4571638E-1,0E0,0E0,2.7159536E0,0E0,0E0,0E0,2.6597116E0,4.1937838E0,0E0,0E0,0E0,0E0],"parents":[2147483647,0,0,1,1,2,2,3,3,5,5,6,6,9,9,13,13,14,14],"right_children":[2,4,6,8,-1,10,12,-1,-1,14,-1,-1,-1,16,18,-1,-1,-1,-1],"split_conditions":[8.9E-1,1.5E0,3.5E-1,4.9E-1,-2.205055E-2,6.9E-1,1.4E-1,8.572036E-2,1.9861752E-2,7.1E-1,6.865875E-2,-8.513399E-3,-5.5853732E-2,1.78E0,4.11E0,-1.7941969E-2,3.3147503E-2,4.926844E-2,-5.1745094E-2],"split_indices":[0,2,26,44,0,41,54,0,0,52,0,0,0,12,51,0,0,0,0],"split_type":[0,0,0,0,0,0,0,0,0,0,0,0,0,0,0,0,0,0,0],"sum_hessian":[1.2766534E2,1.5981049E1,1.1168429E2,1.0841932E1,5.139116E0,1.0048749E2,1.1196798E1,7.4410577E0,3.4008749E0,9.6089455E1,4.3980317E0,3.0618143E0,8.134984E0,7.307639E1,2.3013067E1,6.186383E1,1.121256E1,1.8692469E1,4.320598E0],"tree_param":{"num_deleted":"0","num_feature":"56","num_nodes":"19","size_leaf_vector":"1"}},{"base_weights":[-4.275953E-2,2.3836298E-2,-4.3040216E-1,7.520135E-2,-5.1885407E-2,-2.627326E-4,-5.250702E-2,-2.6620555E-1,1.7943732E-1,2.6533604E-2,-3.8160494E-1,2.2891661E-2,5.387792E-1,-8.0071774E-4,-6.13116E-2,6.42147E-2,-7.4306256E-3,9.229725E-2,3.0385992E-2],"categories":[],"categories_nodes":[],"categories_segments":[],"categories_sizes":[],"default_left":[0,0,0,0,0,0,0,0,0,0,0,0,0,0,0,0,0,0,0],"id":27,"left_children":[1,3,5,7,-1,-1,-1,9,11,-1,13,15,17,-1,-1,-1,-1,-1,-1],"loss_changes":[3.0081124E0,2.8279111E0,6.902125E-1,3.3314228E0,0E0,0E0,0E0,1.4498028E0,3.9977775E0,0E0,1.5929012E0,3.0993087E0,1.6679106E0,0E0,0E0,0E0,0E0,0E0,0E0],"parents":[2147483647,0,0,1,1,2,2,3,3,7,7,8,8,10,10,11,11,12,12],"right_children":[2,4,6,8,-1,-1,-1,10,12,-1,14,16,18,-1,-1,-1,-1,-1,-1],"split_conditions":[1.471E2,2E0,1.6E-2,2E-1,-5.1885407E-2,-2.627326E-4,-5.250702E-2,9.5E-1,4.1E0,2.6533604E-2,-3.3E-1,7.4E-1,4.9E0,-8.0071774E-4,-6.13116E-2,6.42147E-2,-7.4306256E-3,9.229725E-2,3.0385992E-2],"split_indices":[24,3,32,17,0,0,0,0,20,0,38,37,20,0,0,0,0,0,0],"split_type":[0,0,0,0,0,0,0,0,0,0,0,0,0,0,0,0,0,0,0],"sum_hessian":[1.1512661E2,9.9048836E1,1.607778E1,9.1271515E1,7.7773204E0,3.0995686E0,1.2978211E1,2.0984978E1,7.028654E1,3.511475E0,1.7473503E1,4.9699062E1,2.0587471E1,7.081085E0,1.0392418E1,5.9818234E0,4.371724E1,6.7004614E0,1.3887009E1],"tree_param":{"num_deleted":"0","num_feature":"56","num_nodes":"19","size_leaf_vector":"1"}},{"base_weights":[-3.845406E-2,-1.7328633E-1,1.1585623E-1,-2.838193E-1,2.5743032E-1,-3.927138E-2,1.7926744E-1,-4.63363E-1,-5.5200648E-2,5.1845056E-1,-3.2876275E-2,3.2753354E-1,-1.4724012E-1,-5.786779E-2,-3.604368E-3,2.7741086E-1,-3.7454477E-1,8.778754E-2,3.7378767E-3,8.7721035E-2,1.4194523E-1,2.4580993E-1,-4.781567E-2,5.4623075E-2,-2.8415054E-2,-5.8548667E-2,2.6042962E-3,-1.0046872E-2,4.0577114E-2,6.568683E-2,-2.7627314E-2],"categories":[],"categories_nodes":[],"categories_segments":[],"categories_sizes":[],"default_left":[0,0,0,0,0,0,0,0,0,0,0,0,0,0,0,0,0,0,0,0,0,0,0,0,0,0,0,0,0,0,0],"id":28,"left_children":[1,3,5,7,9,-1,11,13,15,17,-1,19,21,-1,-1,23,25,-1,-1,-1,27,29,-1,-1,-1,-1,-1,-1,-1,-1,-1],"loss_changes":[2.3112106E0,2.890014E0,1.7457285E0,1.9266763E0,2.0995445E0,0E0,2.317542E0,1.2851963E0,2.4467103E0,1.5426443E0,0E0,3.1958234E0,2.1113288E0,0E0,0E0,1.872884E0,1.0020711E0,0E0,0E0,0E0,1.6732605E0,1.8269008E0,0E0,0E0,0E0,0E0,0E0,0E0,0E0,0E0,0E0],"parents":[2147483647,0,0,1,1,2,2,3,3,4,4,6,6,7,7,8,8,9,9,11,11,12,12,15,15,16,16,20,20,21,21],"right_children":[2,4,6,8,10,-1,12,14,16,18,-1,20,22,-1,-1,24,26,-1,-1,-1,28,30,-1,-1,-1,-1,-1,-1,-1,-1,-1],"split_conditions":[1E0,1E0,-2.434E2,1.7E0,3.3E-1,-3.927138E-2,1.17E0,4E0,4E0,1.07E0,-3.2876275E-2,1.2E0,1.4521E3,-5.786779E-2,-3.604368E-3,8.6E-1,2.9E-1,8.778754E-2,3.7378767E-3,8.7721035E-2,3E0,1.4E0,-4.781567E-2,5.4623075E-2,-2.8415054E-2,-5.8548667E-2,2.6042962E-3,-1.0046872E-2,4.0577114E-2,6.568683E-2,-2.7627314E-2],"split_indices":[36,35,24,14,38,0,38,47,21,37,0,14,22,0,0,11,25,0,0,0,51,3,0,0,0,0,0,0,0,0,0],"split_type":[0,0,0,0,0,0,0,0,0,0,0,0,0,0,0,0,0,0,0,0,0,0,0,0,0,0,0,0,0,0,0],"sum_hessian":[1.0911888E2,5.8169197E1,5.0949688E1,4.6561398E1,1.1607799E1,5.0726814E0,4.5877007E1,2.5504704E1,2.1056694E1,8.11148E0,3.4963193E0,3.154801E1,1.4328999E1,1.9805779E1,5.6989236E0,1.0378413E1,1.0678282E1,4.17063E0,3.9408493E0,7.0223913E0,2.4525618E1,6.667172E0,7.6618266E0,7.0370646E0,3.3413482E0,6.6925454E0,3.985736E0,1.3104165E1,1.14214525E1,3.585772E0,3.0814E0],"tree_param":{"num_deleted":"0","num_feature":"56","num_nodes":"31","size_leaf_vector":"1"}},{"base_weights":[8.575324E-2,2.2178233E-1,-1.2944023E-1,3.0539915E-1,-1.9187506E-1,3.712496E-1,-2.1021274E-1,1.5360315E-1,5.568102E-1,-6.6112556E-2,1.6017613E-1,5.8374166E-2,6.291563E-3,-4.9086657E-1,7.0434883E-3,-4.600737E-1,2.7173075E-1,1.1592397E-2,6.4004993E-1,-4.3780487E-2,5.6890614E-2,-1.0951205E-2,-6.292302E-2,-1.4971797E-1,6.555307E-2,-1.5552846E-2,-6.522719E-2,-3.305142E-2,4.04719E-2,2.4343548E-2,8.066406E-2,3.5013214E-2,-3.2951903E-2],"categories":[],"categories_nodes":[],"categories_segments":[],"categories_sizes":[],"default_left":[0,0,0,0,0,0,0,0,0,0,0,0,0,0,0,0,0,0,0,0,0,0,0,0,0,0,0,0,0,0,0,0,0],"id":29,"left_children":[1,3,5,7,9,11,13,15,17,-1,19,-1,-1,21,23,25,27,-1,29,-1,-1,-1,-1,31,-1,-1,-1,-1,-1,-1,-1,-1,-1],"loss_changes":[3.990615E0,2.9396453E0,2.2235262E0,2.5734653E0,2.5211446E0,4.6979558E-1,2.8277617E0,3.3744674E0,8.7445736E-1,0E0,2.4874463E0,0E0,0E0,9.9828815E-1,2.8525364E0,3.4380996E-1,3.194696E0,0E0,1.2257061E0,0E0,0E0,0E0,0E0,2.1495876E0,0E0,0E0,0E0,0E0,0E0,0E0,0E0,0E0,0E0],"parents":[2147483647,0,0,1,1,2,2,3,3,4,4,5,5,6,6,7,7,8,8,10,10,13,13,14,14,15,15,16,16,18,18,23,23],"right_children":[2,4,6,8,10,12,14,16,18,-1,20,-1,-1,22,24,26,28,-1,30,-1,-1,-1,-1,32,-1,-1,-1,-1,-1,-1,-1,-1,-1],"split_conditions":[3E0,1E0,8.1E0,6.2E-1,8.8E-1,1.17E0,1.57E0,3.5E0,5E-2,-6.6112556E-2,1.5E0,5.8374166E-2,6.291563E-3,3.3E0,1.1E-1,1.12E0,1.2E0,1.1592397E-2,1E0,-4.3780487E-2,5.6890614E-2,-1.0951205E-2,-6.292302E-2,-1E-1,6.555307E-2,-1.5552846E-2,-6.522719E-2,-3.305142E-2,4.04719E-2,2.4343548E-2,8.066406E-2,3.5013214E-2,-3.2951903E-2],"split_indices":[47,35,19,52,12,1,12,21,18,0,35,0,0,20,27,49,14,0,47,0,0,0,0,4,0,0,0,0,0,0,0,0,0],"split_type":[0,0,0,0,0,0,0,0,0,0,0,0,0,0,0,0,0,0,0,0,0,0,0,0,0,0,0,0,0,0,0,0,0],"sum_hessian":[1.3434537E2,8.2294426E1,5.2050945E1,6.867429E1,1.36201315E1,6.7309747E0,4.5319973E1,4.3824852E1,2.484944E1,5.461951E0,8.158181E0,3.4560106E0,3.2749639E0,1.9225231E1,2.6094742E1,6.6069274E0,3.7217926E1,4.326486E0,2.0522953E1,3.2833838E0,4.8747973E0,5.5952425E0,1.3629989E1,2.1634155E1,4.4605856E0,3.2563407E0,3.3505867E0,6.463283E0,3.0754642E1,6.798516E0,1.3724437E1,5.472678E0,1.6161476E1],"tree_param":{"num_deleted":"0","num_feature":"56","num_nodes":"33","size_leaf_vector":"1"}},{"base_weights":[3.249271E-3,-1.7845428E-1,1.6484605E-1,-2.4747618E-1,4.5335915E-2,-1.6365343E-1,3.2564953E-1,3.8517613E-2,-3.1663164E-1,2.557618E-1,-4.2116886E-1,-1.647147E-1,4.5789704E-1,-5.250501E-1,-1.2042869E-1,6.7509614E-2,-3.126003E-2,-6.2239975E-2,2.4972537E-3,-4.6276968E-2,2.3559643E-2,6.753508E-1,1.5691832E-1,-2.2435576E-2,-6.0145017E-2,4.244337E-2,-2.461869E-2,7.866823E-2,1.0023954E-2,6.8893306E-2,-1.1563756E-2],"categories":[],"categories_nodes":[],"categories_segments":[],"categories_sizes":[],"default_left":[0,0,0,0,0,0,0,0,0,0,0,0,0,0,0,0,0,0,0,0,0,0,0,0,0,0,0,0,0,0,0],"id":30,"left_children":[1,3,5,7,-1,9,11,-1,13,15,17,19,21,23,25,-1,-1,-1,-1,-1,-1,27,29,-1,-1,-1,-1,-1,-1,-1,-1],"loss_changes":[3.3168168E0,2.4313505E0,3.2109787E0,2.24784E0,0E0,2.3013973E0,2.699678E0,0E0,1.7503796E0,2.2008135E0,1.1792397E0,1.2223433E0,1.9972911E0,3.522811E-1,1.75876E0,0E0,0E0,0E0,0E0,0E0,0E0,1.0963154E0,2.2231038E0,0E0,0E0,0E0,0E0,0E0,0E0,0E0,0E0],"parents":[2147483647,0,0,1,1,2,2,3,3,5,5,6,6,8,8,9,9,10,10,11,11,12,12,13,13,14,14,21,21,22,22],"right_children":[2,4,6,8,-1,10,12,-1,14,16,18,20,22,24,26,-1,-1,-1,-1,-1,-1,28,30,-1,-1,-1,-1,-1,-1,-1,-1],"split_conditions":[-4E-1,1.18E1,2E0,1E-2,4.5335915E-2,-1.413E2,3.8E0,3.8517613E-2,2E-1,3.28E-1,1.43E0,1.48E0,9E0,3.5E-1,-5.01E1,6.7509614E-2,-3.126003E-2,-6.2239975E-2,2.4972537E-3,-4.6276968E-2,2.3559643E-2,6.2E0,1.12E0,-2.2435576E-2,-6.0145017E-2,4.244337E-2,-2.461869E-2,7.866823E-2,1.0023954E-2,6.8893306E-2,-1.1563756E-2],"split_indices":[15,19,43,32,0,24,9,0,18,32,34,0,48,5,24,0,0,0,0,0,0,10,34,0,0,0,0,0,0,0,0],"split_type":[0,0,0,0,0,0,0,0,0,0,0,0,0,0,0,0,0,0,0,0,0,0,0,0,0,0,0,0,0,0,0],"sum_hessian":[1.1095832E2,5.2180695E1,5.8777626E1,4.7590065E1,4.5906267E0,1.931073E1,3.9466896E1,4.239184E0,4.3350883E1,7.3487062E0,1.1962023E1,8.330924E0,3.1135971E1,2.0208332E1,2.3142551E1,4.1206913E0,3.228015E0,7.9714494E0,3.9905734E0,4.685942E0,3.644982E0,1.7354029E1,1.3781942E1,4.891806E0,1.5316525E1,3.8944385E0,1.9248112E1,1.4231234E1,3.122795E0,4.151248E0,9.630694E0],"tree_param":{"num_deleted":"0","num_feature":"56","num_nodes":"31","size_leaf_vector":"1"}},{"base_weights":[-3.0963665E-2,-3.9446768E-1,6.993937E-3,-5.535401E-2,-3.7336622E-3,-5.9976134E-2,3.006716E-1,7.328924E-2,-3.121667E-1,6.422756E-1,-9.1054656E-2,-5.3105008E-2,1.3482283E-1,-5.8296595E-2,-5.048111E-1,9.33269E-3,9.1653414E-2,2.4450853E-2,-5.319215E-2,2.5618125E-2,-2.8229985E-2,-5.3353574E-2,2.1979524E-2,-6.0896695E-2,-1.1731959E-2],"categories":[],"categories_nodes":[],"categories_segments":[],"categories_sizes":[],"default_left":[0,0,0,0,0,0,0,0,0,0,0,0,0,0,0,0,0,0,0,0,0,0,0,0,0],"id":31,"left_children":[1,3,5,-1,-1,7,9,11,13,15,17,-1,19,21,23,-1,-1,-1,-1,-1,-1,-1,-1,-1,-1],"loss_changes":[1.520504E0,5.7115984E-1,1.9962375E0,0E0,0E0,2.8035622E0,2.5800602E0,2.1147556E0,1.3788648E0,1.448607E0,1.5582185E0,0E0,2.6369393E0,1.9085826E0,5.8405113E-1,0E0,0E0,0E0,0E0,0E0,0E0,0E0,0E0,0E0,0E0],"parents":[2147483647,0,0,1,1,2,2,5,5,6,6,7,7,8,8,9,9,10,10,12,12,13,13,14,14],"right_children":[2,4,6,-1,-1,8,10,12,14,16,18,-1,20,22,24,-1,-1,-1,-1,-1,-1,-1,-1,-1,-1],"split_conditions":[5.4E-1,4.24E-1,3E-1,-5.535401E-2,-3.7336622E-3,-4E-1,6E-1,3.3E0,2.56E0,1.62E0,4.4E0,-5.3105008E-2,5.3E0,4.2E0,2E0,9.33269E-3,9.1653414E-2,2.4450853E-2,-5.319215E-2,2.5618125E-2,-2.8229985E-2,-5.3353574E-2,2.1979524E-2,-6.0896695E-2,-1.1731959E-2],"split_indices":[28,31,15,0,0,15,15,9,51,11,9,0,9,9,0,0,0,0,0,0,0,0,0,0,0],"split_type":[0,0,0,0,0,0,0,0,0,0,0,0,0,0,0,0,0,0,0,0,0,0,0,0,0],"sum_hessian":[1.0899953E2,9.417713E0,9.958182E1,6.1350784E0,3.282635E0,8.173809E1,1.7843727E1,5.394255E1,2.779554E1,9.190003E0,8.653723E0,4.2797394E0,4.966281E1,1.2554119E1,1.5241421E1,3.5082572E0,5.681746E0,5.1665926E0,3.4871304E0,3.8769096E1,1.0893713E1,4.295263E0,8.258857E0,1.1562038E1,3.6793823E0],"tree_param":{"num_deleted":"0","num_feature":"56","num_nodes":"25","size_leaf_vector":"1"}},{"base_weights":[7.091262E-2,1.9948578E-1,-8.3947755E-2,8.115697E-2,1.4368054E-1,-2.0739827E-1,3.3624926E-1,-2.141129E-1,2.4358334E-1,8.797098E-2,-4.1547543E-1,6.328697E-2,-3.077147E-2,-5.9762277E-2,2.4885379E-1,3.4418806E-1,-1.9768998E-1,4.7053054E-1,-2.0354605E-1,-6.329269E-2,-1.706363E-1,-1.9107794E-2,6.1396908E-2,4.4628225E-2,-7.3898467E-3,-6.1119378E-2,1.4751921E-2,8.4102325E-2,-1.6762488E-2,-4.7947895E-2,4.0968932E-2,3.361235E-2,-4.8488926E-2],"categories":[],"categories_nodes":[],"categories_segments":[],"categories_sizes":[],"default_left":[0,0,0,0,0,0,0,0,0,0,0,0,0,0,0,0,0,0,0,0,0,0,0,0,0,0,0,0,0,0,0,0,0],"id":32,"left_children":[1,3,5,-1,7,9,11,13,15,17,19,-1,-1,-1,21,23,25,27,29,-1,31,-1,-1,-1,-1,-1,-1,-1,-1,-1,-1,-1,-1],"loss_changes":[2.663394E0,2.3742454E0,3.2341292E0,0E0,2.4843817E0,2.9723713E0,2.9135675E0,2.8802776E0,2.4502413E0,2.389591E0,1.393393E0,0E0,0E0,0E0,1.3503145E0,1.9137511E0,1.6029332E0,2.3154526E0,2.2897766E0,0E0,2.4934337E0,0E0,0E0,0E0,0E0,0E0,0E0,0E0,0E0,0E0,0E0,0E0,0E0],"parents":[2147483647,0,0,1,1,2,2,4,4,5,5,6,6,7,7,8,8,9,9,10,10,14,14,15,15,16,16,17,17,18,18,20,20],"right_children":[2,4,6,-1,8,10,12,14,16,18,20,-1,-1,-1,22,24,26,28,30,-1,32,-1,-1,-1,-1,-1,-1,-1,-1,-1,-1,-1,-1],"split_conditions":[1E0,-8E-1,1.5583E3,8.115697E-2,1.4175E3,1.06E0,3.5E-1,3.32E-1,1E0,2.56E0,1.5069E3,6.328697E-2,-3.077147E-2,-5.9762277E-2,7.7E-1,2.62E-1,8.8E-1,3.7E-1,2.9E-1,-6.329269E-2,1.06E1,-1.9107794E-2,6.1396908E-2,4.4628225E-2,-7.3898467E-3,-6.1119378E-2,1.4751921E-2,8.4102325E-2,-1.6762488E-2,-4.7947895E-2,4.0968932E-2,3.361235E-2,-4.8488926E-2],"split_indices":[36,4,22,0,22,1,17,32,35,51,22,0,0,0,1,32,12,32,26,0,19,0,0,0,0,0,0,0,0,0,0,0,0],"split_type":[0,0,0,0,0,0,0,0,0,0,0,0,0,0,0,0,0,0,0,0,0,0,0,0,0,0,0,0,0,0,0,0,0],"sum_hessian":[1.3192462E2,7.192258E1,6.0002045E1,4.877894E0,6.7044685E1,4.6768314E1,1.3233729E1,1.4384521E1,5.2660164E1,1.9568169E1,2.7200146E1,9.072168E0,4.1615615E0,7.708303E0,6.6762176E0,4.3062477E1,9.597688E0,8.197052E0,1.1371117E1,1.3566299E1,1.3633846E1,3.244067E0,3.4321506E0,3.455654E1,8.505936E0,4.0163083E0,5.5813794E0,4.9850144E0,3.2120376E0,7.9927807E0,3.3783357E0,5.191888E0,8.441958E0],"tree_param":{"num_deleted":"0","num_feature":"56","num_nodes":"33","size_leaf_vector":"1"}},{"base_weights":[-3.4419198E-2,9.577207E-2,-2.55414E-1,-1.9761513E-1,2.769704E-1,-4.8192105E-1,-4.379586E-2,-3.8612744E-1,4.7946937E-2,4.3564448E-1,-1.1141942E-1,-5.5564087E-2,-8.463401E-3,-2.4299169E-1,6.624308E-2,-5.7154056E-2,1.7211394E-2,-5.4744188E-2,6.3448364E-1,3.899325E-2,-4.938929E-2,1.8622337E-2,-4.6948272E-1,4.2496983E-2,-4.2259883E-2,7.485591E-2,-3.941299E-3,-5.9885442E-2,-5.8371876E-3],"categories":[],"categories_nodes":[],"categories_segments":[],"categories_sizes":[],"default_left":[0,0,0,0,0,0,0,0,0,0,0,0,0,0,0,0,0,0,0,0,0,0,0,0,0,0,0,0,0],"id":33,"left_children":[1,3,5,7,9,11,13,15,-1,17,19,-1,-1,21,-1,-1,-1,23,25,-1,-1,-1,27,-1,-1,-1,-1,-1,-1],"loss_changes":[3.1934128E0,3.778008E0,1.9491453E0,3.6727505E0,2.7424738E0,5.3152037E-1,3.30518E0,2.3679597E0,0E0,3.0807076E0,2.7765098E0,0E0,0E0,1.8533064E0,0E0,0E0,0E0,1.9323494E0,1.744235E0,0E0,0E0,0E0,6.1255884E-1,0E0,0E0,0E0,0E0,0E0,0E0],"parents":[2147483647,0,0,1,1,2,2,3,3,4,4,5,5,6,6,7,7,9,9,10,10,13,13,17,17,18,18,22,22],"right_children":[2,4,6,8,10,12,14,16,-1,18,20,-1,-1,22,-1,-1,-1,24,26,-1,-1,-1,28,-1,-1,-1,-1,-1,-1],"split_conditions":[3E0,3.3E0,2.5E-1,7.21E-1,1.64E0,4.11E0,1.17E0,1.4E0,4.7946937E-2,1.04E1,4.4E-1,-5.5564087E-2,-8.463401E-3,3.32E-1,6.624308E-2,-5.7154056E-2,1.7211394E-2,3.5E0,6.39E-1,3.899325E-2,-4.938929E-2,1.8622337E-2,3.89E0,4.2496983E-2,-4.2259883E-2,7.485591E-2,-3.941299E-3,-5.9885442E-2,-5.8371876E-3],"split_indices":[51,20,6,30,11,51,38,49,0,19,52,0,0,30,0,0,0,20,30,0,0,0,51,0,0,0,0,0,0],"split_type":[0,0,0,0,0,0,0,0,0,0,0,0,0,0,0,0,0,0,0,0,0,0,0,0,0,0,0,0,0],"sum_hessian":[1.0914165E2,6.903736E1,4.0104286E1,2.63241E1,4.271326E1,1.8753754E1,2.1350533E1,2.0927292E1,5.396808E0,3.023804E1,1.247522E1,1.54823E1,3.2714548E0,1.7164972E1,4.185562E0,1.5691671E1,5.23562E0,8.932607E0,2.1305435E1,5.3901844E0,7.0850353E0,5.990458E0,1.1174514E1,3.8094683E0,5.123139E0,1.8126274E1,3.1791596E0,8.152382E0,3.0221314E0],"tree_param":{"num_deleted":"0","num_feature":"56","num_nodes":"29","size_leaf_vector":"1"}},{"base_weights":[-5.226712E-2,-1.3933946E-1,1.2990116E-1,-2.8330573E-1,5.8414023E-2,4.210454E-1,-1.3397615E-1,-4.6456343E-1,-5.929296E-3,2.300689E-1,-2.86117E-1,-3.1014094E-2,6.237792E-1,-3.5615286E-1,1.8407312E-1,-2.928795E-3,-5.461221E-1,3.2325223E-1,-4.48814E-2,3.7382913E-1,-3.3927906E-2,-5.585866E-2,1.4619576E-2,9.171621E-3,7.980087E-1,-5.6681264E-2,-2.6442136E-3,-1.8321633E-2,6.455793E-2,-1.8280474E-2,-6.262289E-2,6.125961E-2,-3.084047E-2,-2.7027905E-2,5.3492546E-2,9.335999E-2,3.594826E-2],"categories":[],"categories_nodes":[],"categories_segments":[],"categories_sizes":[],"default_left":[0,0,0,0,0,0,0,0,0,0,0,0,0,0,0,0,0,0,0,0,0,0,0,0,0,0,0,0,0,0,0,0,0,0,0,0,0],"id":34,"left_children":[1,3,5,7,9,11,13,15,17,19,21,-1,23,25,27,-1,29,31,-1,33,-1,-1,-1,-1,35,-1,-1,-1,-1,-1,-1,-1,-1,-1,-1,-1,-1],"loss_changes":[1.7295246E0,2.1086497E0,2.7769094E0,2.1438892E0,1.9457923E0,2.724898E0,1.4317558E0,9.002552E-1,2.7528396E0,1.9088179E0,1.3793426E0,0E0,1.1970077E0,7.992735E-1,1.5778435E0,0E0,5.1650095E-1,2.1704822E0,0E0,1.9976063E0,0E0,0E0,0E0,0E0,2.704172E-1,0E0,0E0,0E0,0E0,0E0,0E0,0E0,0E0,0E0,0E0,0E0,0E0],"parents":[2147483647,0,0,1,1,2,2,3,3,4,4,5,5,6,6,7,7,8,8,9,9,10,10,12,12,13,13,14,14,16,16,17,17,19,19,24,24],"right_children":[2,4,6,8,10,12,14,16,18,20,22,-1,24,26,28,-1,30,32,-1,34,-1,-1,-1,-1,36,-1,-1,-1,-1,-1,-1,-1,-1,-1,-1,-1,-1],"split_conditions":[1.5422E3,1.6E0,9.3E-1,2.5E-1,3E0,1E-2,2.75E-1,1.3968E3,3.87E-1,1.6494E3,1.2E1,-3.1014094E-2,-8.3E-1,1.1E0,4.8E0,-2.928795E-3,-1.17E0,1.3E0,-4.48814E-2,6E-1,-3.3927906E-2,-5.585866E-2,1.4619576E-2,9.171621E-3,3.5E-1,-5.6681264E-2,-2.6442136E-3,-1.8321633E-2,6.455793E-2,-1.8280474E-2,-6.262289E-2,6.125961E-2,-3.084047E-2,-2.7027905E-2,5.3492546E-2,9.335999E-2,3.594826E-2],"split_indices":[22,50,11,32,43,32,31,23,32,23,8,0,35,4,21,0,35,13,0,49,0,0,0,0,6,0,0,0,0,0,0,0,0,0,0,0,0],"split_type":[0,0,0,0,0,0,0,0,0,0,0,0,0,0,0,0,0,0,0,0,0,0,0,0,0,0,0,0,0,0,0,0,0,0,0,0,0],"sum_hessian":[1.0689584E2,7.2484825E1,3.4411015E1,4.1696667E1,3.078816E1,1.6077065E1,1.8333948E1,2.4809507E1,1.6887161E1,2.0771465E1,1.0016693E1,3.3749752E0,1.270209E1,1.0723281E1,7.610667E0,4.12952E0,2.0679987E1,9.842029E0,7.045133E0,1.6858187E1,3.9132795E0,5.9650617E0,4.051632E0,3.5099115E0,9.192179E0,6.1041064E0,4.619175E0,4.573697E0,3.0369706E0,4.328855E0,1.6351131E1,6.7707286E0,3.0712998E0,3.2372022E0,1.3620985E1,6.158909E0,3.0332694E0],"tree_param":{"num_deleted":"0","num_feature":"56","num_nodes":"37","size_leaf_vector":"1"}},{"base_weights":[1.04240954E-1,2.2547166E-1,-5.382605E-2,2.757111E-1,-6.5842256E-2,-1.15022555E-1,5.1372714E-2,-2.810498E-2,3.2636282E-1,2.652906E-1,-2.0585828E-1,2.4634497E-1,6.7975694E-1,5.0994474E-2,-1.6983384E-3,-3.7461716E-1,8.573508E-3,6.169061E-3,3.880733E-2,2.9934019E-2,7.973927E-2,-5.0454684E-2,3.8913214E-3,-4.0235437E-2,1.7661363E-2],"categories":[],"categories_nodes":[],"categories_segments":[],"categories_sizes":[],"default_left":[0,0,0,0,0,0,0,0,0,0,0,0,0,0,0,0,0,0,0,0,0,0,0,0,0],"id":35,"left_children":[1,3,5,7,-1,9,-1,-1,11,13,15,17,19,-1,-1,21,23,-1,-1,-1,-1,-1,-1,-1,-1],"loss_changes":[2.5376549E0,3.502285E0,2.074025E0,2.1070738E0,0E0,1.8919054E0,0E0,0E0,1.6979594E0,7.469476E-1,1.577117E0,1.4247844E0,2.8089476E-1,0E0,0E0,1.3285491E0,1.4612434E0,0E0,0E0,0E0,0E0,0E0,0E0,0E0,0E0],"parents":[2147483647,0,0,1,1,2,2,3,3,5,5,8,8,9,9,10,10,11,11,12,12,15,15,16,16],"right_children":[2,4,6,8,-1,10,-1,-1,12,14,16,18,20,-1,-1,22,24,-1,-1,-1,-1,-1,-1,-1,-1],"split_conditions":[1.04E1,4.11E0,2.62E0,1.5E-1,-6.5842256E-2,1.3E-1,5.1372714E-2,-2.810498E-2,3.7E-1,9.9E-1,1.29E0,8.7E0,-8.3E-1,5.0994474E-2,-1.6983384E-3,1.42E1,1.44E3,6.169061E-3,3.880733E-2,2.9934019E-2,7.973927E-2,-5.0454684E-2,3.8913214E-3,-4.0235437E-2,1.7661363E-2],"split_indices":[19,51,0,11,0,17,0,0,25,11,49,19,35,0,0,19,23,0,0,0,0,0,0,0,0],"split_type":[0,0,0,0,0,0,0,0,0,0,0,0,0,0,0,0,0,0,0,0,0,0,0,0,0],"sum_hessian":[1.3079434E2,7.3781E1,5.7013336E1,7.046399E1,3.317012E0,5.218393E1,4.829404E0,5.4966354E0,6.4967354E1,9.69059E0,4.249334E1,5.4356644E1,1.0610712E1,4.759151E0,4.9314384E0,2.3361053E1,1.9132286E1,2.4227064E1,3.0129578E1,3.3433723E0,7.2673397E0,1.760845E1,5.752604E0,5.1482596E0,1.3984027E1],"tree_param":{"num_deleted":"0","num_feature":"56","num_nodes":"25","size_leaf_vector":"1"}},{"base_weights":[-6.822856E-2,-2.5541885E-3,-5.058932E-1,4.2824443E-2,-5.0065577E-2,-2.2416228E-2,-5.6468524E-2,-1.5139127E-1,1.5634455E-1,1.2257797E-1,-3.5105342E-1,7.76639E-2,9.739615E-2,-2.507521E-2,5.2267034E-2,1.5215638E-2,-4.5716837E-2,-3.6974564E-2,2.3027042E-2],"categories":[],"categories_nodes":[],"categories_segments":[],"categories_sizes":[],"default_left":[0,0,0,0,0,0,0,0,0,0,0,0,0,0,0,0,0,0,0],"id":36,"left_children":[1,3,5,7,-1,-1,-1,9,11,13,15,-1,17,-1,-1,-1,-1,-1,-1],"loss_changes":[3.1694794E0,2.2122505E0,1.1174035E-1,2.0024939E0,0E0,0E0,0E0,1.8819228E0,2.0135674E0,2.3585076E0,1.1217346E0,0E0,3.394841E0,0E0,0E0,0E0,0E0,0E0,0E0],"parents":[2147483647,0,0,1,1,2,2,3,3,7,7,8,8,9,9,10,10,12,12],"right_children":[2,4,6,8,-1,-1,-1,10,12,14,16,-1,18,-1,-1,-1,-1,-1,-1],"split_conditions":[1.471E2,2E0,1.5623E3,3.3E0,-5.0065577E-2,-2.2416228E-2,-5.6468524E-2,1.1E-1,1.3819E3,1.54E0,7.9E0,7.76639E-2,-5E-1,-2.507521E-2,5.2267034E-2,1.5215638E-2,-4.5716837E-2,-3.6974564E-2,2.3027042E-2],"split_indices":[24,3,22,20,0,0,0,26,22,28,19,0,15,0,0,0,0,0,0],"split_type":[0,0,0,0,0,0,0,0,0,0,0,0,0,0,0,0,0,0,0],"sum_hessian":[1.0931323E2,9.592492E1,1.338831E1,8.875324E1,7.171677E0,3.1424627E0,1.0245848E1,3.2616962E1,5.6136284E1,1.3912627E1,1.8704332E1,3.8152094E0,5.2321075E1,7.390109E0,6.522518E0,3.1818302E0,1.5522503E1,1.1191789E1,4.1129284E1],"tree_param":{"num_deleted":"0","num_feature":"56","num_nodes":"19","size_leaf_vector":"1"}},{"base_weights":[-1.4216509E-2,3.2642823E-2,-4.7348306E-2,3.4871906E-1,-4.156665E-2,5.444567E-1,-3.4077063E-2,-4.700225E-2,1.0356831E-2,9.5436394E-2,1.19134225E-1,-1.6252314E-1,1.7612776E-1,-3.208096E-2,4.747435E-2,-2.8861051E-2,1.5051576E-2,1.7894254E-3,5.5768818E-2],"categories":[],"categories_nodes":[],"categories_segments":[],"categories_sizes":[],"default_left":[0,0,0,0,0,0,0,0,0,0,0,0,0,0,0,0,0,0,0],"id":37,"left_children":[1,3,-1,5,7,9,-1,-1,11,-1,13,15,17,-1,-1,-1,-1,-1,-1],"loss_changes":[2.2872584E0,2.2832522E0,0E0,2.6819878E0,1.7674181E0,2.465292E0,0E0,0E0,2.0817654E0,0E0,1.4668491E0,1.4481455E0,2.2271013E0,0E0,0E0,0E0,0E0,0E0,0E0],"parents":[2147483647,0,0,1,1,3,3,4,4,5,5,8,8,10,10,11,11,12,12],"right_children":[2,4,-1,6,8,10,-1,-1,12,-1,14,16,18,-1,-1,-1,-1,-1,-1],"split_conditions":[1.62E1,7E-2,-4.7348306E-2,8.79E-1,1E0,0E0,-3.4077063E-2,-4.700225E-2,2.5E-1,9.5436394E-2,6E0,1.5421E3,3.5E-1,-3.208096E-2,4.747435E-2,-2.8861051E-2,1.5051576E-2,1.7894254E-3,5.5768818E-2],"split_indices":[8,32,0,30,2,38,0,0,32,0,42,22,17,0,0,0,0,0,0],"split_type":[0,0,0,0,0,0,0,0,0,0,0,0,0,0,0,0,0,0,0],"sum_hessian":[1.0456249E2,9.572456E1,8.83793E0,1.7497849E1,7.8226715E1,1.3792637E1,3.7052124E0,7.5850577E0,7.064166E1,6.390191E0,7.402446E0,3.4588955E1,3.6052704E1,3.3526084E0,4.049837E0,2.4712976E1,9.875979E0,2.6224339E1,9.828363E0],"tree_param":{"num_deleted":"0","num_feature":"56","num_nodes":"19","size_leaf_vector":"1"}},{"base_weights":[6.5388136E-2,4.1024235E-1,1.976972E-2,1.1252356E-1,7.576745E-2,-2.0090362E-2,5.497849E-1,4.5723308E-2,-4.062303E-2,-8.508268E-2,2.1342479E-1,2.3889413E-2,7.0667006E-2,5.1781792E-2,-1.2788343E-1,-4.3190353E-2,4.522006E-1,-6.4267665E-3,-5.5882342E-2,1.5736709E-3,6.373789E-2],"categories":[],"categories_nodes":[],"categories_segments":[],"categories_sizes":[],"default_left":[0,0,0,0,0,0,0,0,0,0,0,0,0,0,0,0,0,0,0,0,0],"id":38,"left_children":[1,3,5,7,-1,9,11,-1,-1,13,15,-1,-1,-1,17,-1,19,-1,-1,-1,-1],"loss_changes":[2.042107E0,1.4843965E0,2.4648612E0,1.8570877E0,0E0,1.6722614E0,2.2914505E-1,0E0,0E0,2.2847693E0,3.8957057E0,0E0,0E0,0E0,2.1868043E0,0E0,1.4462051E0,0E0,0E0,0E0,0E0],"parents":[2147483647,0,0,1,1,2,2,3,3,5,5,6,6,9,9,10,10,14,14,16,16],"right_children":[2,4,6,8,-1,10,12,-1,-1,14,16,-1,-1,-1,18,-1,20,-1,-1,-1,-1],"split_conditions":[3.3E0,-5.01E1,2.926E2,3.41E-1,7.576745E-2,6.3E0,4E0,4.5723308E-2,-4.062303E-2,-7E-1,-8.3E-1,2.3889413E-2,7.0667006E-2,5.1781792E-2,3.5E-1,-4.3190353E-2,1.37E1,-6.4267665E-3,-5.5882342E-2,1.5736709E-3,6.373789E-2],"split_indices":[9,24,24,30,0,10,39,0,0,4,35,0,0,0,26,0,8,0,0,0,0],"split_type":[0,0,0,0,0,0,0,0,0,0,0,0,0,0,0,0,0,0,0,0,0],"sum_hessian":[1.2932394E2,1.4174952E1,1.15149E2,8.346559E0,5.828393E0,1.0798967E2,7.1593275E0,5.0857167E0,3.2608414E0,8.4974945E1,2.3014723E1,3.2472205E0,3.912107E0,4.8969607E0,8.007799E1,5.9972925E0,1.7017431E1,7.07787E1,9.299284E0,5.392451E0,1.162498E1],"tree_param":{"num_deleted":"0","num_feature":"56","num_nodes":"21","size_leaf_vector":"1"}},{"base_weights":[-1.0249084E-2,5.4315075E-2,-4.2617238E-1,-1.5702558E-1,1.5098926E-1,1.1693436E-4,-5.5224944E-2,1.1332266E-1,-3.8200095E-1,-9.576971E-2,2.8714833E-1,-3.3392203E-1,5.4120415E-1,-5.9590943E-2,4.132247E-3,4.6683246E-1,-3.2954097E-1,5.3173804E-1,-3.3012442E-2,-5.314956E-3,-5.17175E-2,1.9521318E-2,7.4672885E-2,6.439664E-2,1.7795473E-2,-4.602704E-2,1.3588888E-2,1.1609999E-2,6.801193E-2,-1.981389E-2,5.763765E-2],"categories":[],"categories_nodes":[],"categories_segments":[],"categories_sizes":[],"default_left":[0,0,0,0,0,0,0,0,0,0,0,0,0,0,0,0,0,0,0,0,0,0,0,0,0,0,0,0,0,0,0],"id":39,"left_children":[1,3,5,7,9,-1,-1,11,13,15,17,19,21,-1,-1,23,25,27,29,-1,-1,-1,-1,-1,-1,-1,-1,-1,-1,-1,-1],"loss_changes":[2.7631414E0,1.8463837E0,7.454324E-1,1.7760975E0,2.1012127E0,0E0,0E0,2.804625E0,1.4534199E0,3.1389053E0,3.1517413E0,3.4926742E-1,3.7965274E-1,0E0,0E0,2.4749672E-1,1.0738165E0,1.323986E0,1.9532074E0,0E0,0E0,0E0,0E0,0E0,0E0,0E0,0E0,0E0,0E0,0E0,0E0],"parents":[2147483647,0,0,1,1,2,2,3,3,4,4,7,7,8,8,9,9,10,10,11,11,12,12,15,15,16,16,17,17,18,18],"right_children":[2,4,6,8,10,-1,-1,12,14,16,18,20,22,-1,-1,24,26,28,30,-1,-1,-1,-1,-1,-1,-1,-1,-1,-1,-1,-1],"split_conditions":[1.471E2,2E0,1.08E-1,4.1E-1,-5E-1,1.1693436E-4,-5.5224944E-2,1.08E0,1.61E0,8.2E-1,1.24E0,1.37E0,3.9E0,-5.9590943E-2,4.132247E-3,4.3E-1,4E0,3.9E0,1.99E0,-5.314956E-3,-5.17175E-2,1.9521318E-2,7.4672885E-2,6.439664E-2,1.7795473E-2,-4.602704E-2,1.3588888E-2,1.1609999E-2,6.801193E-2,-1.981389E-2,5.763765E-2],"split_indices":[24,43,31,5,15,0,0,34,28,12,34,37,9,0,0,52,45,9,34,0,0,0,0,0,0,0,0,0,0,0,0],"split_type":[0,0,0,0,0,0,0,0,0,0,0,0,0,0,0,0,0,0,0,0,0,0,0,0,0,0,0,0,0,0,0],"sum_hessian":[1.0103399E2,8.821042E1,1.2823574E1,2.7489971E1,6.0720448E1,3.1471038E0,9.676471E0,1.2711326E1,1.4778646E1,2.1696625E1,3.9023823E1,6.322403E0,6.388922E0,9.546856E0,5.23179E0,6.0762777E0,1.5620347E1,2.1748222E1,1.7275599E1,3.0063045E0,3.3160985E0,3.1074715E0,3.281451E0,3.0046723E0,3.0716052E0,1.2203677E1,3.4166696E0,6.190408E0,1.5557815E1,1.4123424E1,3.1521752E0],"tree_param":{"num_deleted":"0","num_feature":"56","num_nodes":"31","size_leaf_vector":"1"}},{"base_weights":[-3.930553E-2,-2.0050849E-1,5.9546966E-2,-2.6952812E-1,2.7148513E-2,1.4559448E-1,-2.8420496E-1,-4.2022413E-1,2.6417218E-2,2.5883752E-1,-1.1063714E-1,1.8702451E-2,-4.839961E-2,-5.506437E-2,5.7045585E-3,4.196362E-2,-3.3308107E-1,6.066075E-1,9.266844E-2,-4.8751302E-2,2.3108624E-1,-8.300109E-3,-4.996437E-2,3.4087546E-2,9.1810055E-2,-2.3586651E-2,3.3627838E-2,5.7379533E-2,-1.9015357E-2],"categories":[],"categories_nodes":[],"categories_segments":[],"categories_sizes":[],"default_left":[0,0,0,0,0,0,0,0,0,0,0,0,0,0,0,0,0,0,0,0,0,0,0,0,0,0,0,0,0],"id":40,"left_children":[1,3,5,7,-1,9,11,13,15,17,19,-1,-1,-1,-1,-1,21,23,25,-1,27,-1,-1,-1,-1,-1,-1,-1,-1],"loss_changes":[1.6839677E0,1.3799436E0,1.9880441E0,1.5942268E0,0E0,1.5751493E0,1.3628894E0,1.4991612E0,1.9658482E0,2.0970821E0,2.3067024E0,0E0,0E0,0E0,0E0,0E0,2.628417E-1,6.6934013E-1,2.1917691E0,0E0,1.4968975E0,0E0,0E0,0E0,0E0,0E0,0E0,0E0,0E0],"parents":[2147483647,0,0,1,1,2,2,3,3,5,5,6,6,7,7,8,8,9,9,10,10,16,16,17,17,18,18,20,20],"right_children":[2,4,6,8,-1,10,12,14,16,18,20,-1,-1,-1,-1,-1,22,24,26,-1,28,-1,-1,-1,-1,-1,-1,-1,-1],"split_conditions":[1.46E0,1.6E-1,6.6E0,1.78E0,2.7148513E-2,1.77E0,3.8E-1,7.5E-1,1.1E0,1.7E-1,4.1E-1,1.8702451E-2,-4.839961E-2,-5.506437E-2,5.7045585E-3,4.196362E-2,5.7E0,9E0,9.5E-1,-4.8751302E-2,2.3E-1,-8.300109E-3,-4.996437E-2,3.4087546E-2,9.1810055E-2,-2.3586651E-2,3.3627838E-2,5.7379533E-2,-1.9015357E-2],"split_indices":[0,27,10,50,0,34,7,55,13,17,7,0,0,0,0,0,10,42,34,0,27,0,0,0,0,0,0,0,0],"split_type":[0,0,0,0,0,0,0,0,0,0,0,0,0,0,0,0,0,0,0,0,0,0,0,0,0,0,0,0,0],"sum_hessian":[1.03925934E2,3.911351E1,6.481242E1,3.449785E1,4.615662E0,5.2297775E1,1.2514651E1,2.2580082E1,1.1917767E1,3.6261585E1,1.6036188E1,3.7451649E0,8.769486E0,1.7613304E1,4.9667783E0,5.6120396E0,6.305727E0,1.0867273E1,2.5394312E1,7.4229846E0,8.613204E0,3.119849E0,3.185878E0,6.9945827E0,3.872691E0,1.0826017E1,1.4568294E1,4.549609E0,4.063595E0],"tree_param":{"num_deleted":"0","num_feature":"56","num_nodes":"29","size_leaf_vector":"1"}},{"base_weights":[9.3262866E-2,3.1238407E-2,3.8376257E-1,4.1764602E-1,-2.6673222E-2,-1.7509002E-2,5.118186E-1,5.8012253E-1,-1.0107811E-2,-8.736647E-2,2.6922497E-1,6.456594E-1,-1.5734822E-3,7.804327E-2,5.36915E-3,-1.2613899E-1,4.7513828E-2,-2.7941689E-2,4.469358E-1,7.660343E-2,1.5991729E-2,-4.2304654E-2,-5.4818783E-3,6.572269E-2,6.2228693E-3],"categories":[],"categories_nodes":[],"categories_segments":[],"categories_sizes":[],"default_left":[0,0,0,0,0,0,0,0,0,0,0,0,0,0,0,0,0,0,0,0,0,0,0,0,0],"id":41,"left_children":[1,3,5,7,9,-1,11,13,-1,15,17,19,-1,-1,-1,21,-1,-1,23,-1,-1,-1,-1,-1,-1],"loss_changes":[2.327724E0,2.43004E0,1.7183001E0,1.2511163E0,1.7286632E0,0E0,1.3355112E0,1.1098776E0,0E0,1.7947012E0,1.7243845E0,7.5432396E-1,0E0,0E0,0E0,1.569253E0,0E0,0E0,9.9270034E-1,0E0,0E0,0E0,0E0,0E0,0E0],"parents":[2147483647,0,0,1,1,2,2,3,3,4,4,6,6,7,7,9,9,10,10,11,11,15,15,18,18],"right_children":[2,4,6,8,10,-1,12,14,-1,16,18,20,-1,-1,-1,22,-1,-1,24,-1,-1,-1,-1,-1,-1],"split_conditions":[1.5742E3,3.3E0,4E-2,7E-2,8E-1,-1.7509002E-2,2.8E0,1.55E0,-1.0107811E-2,2.1E0,4.8E0,1.5716E3,-1.5734822E-3,7.804327E-2,5.36915E-3,9.2E-1,4.7513828E-2,-2.7941689E-2,4.6E-1,7.660343E-2,1.5991729E-2,-4.2304654E-2,-5.4818783E-3,6.572269E-2,6.2228693E-3],"split_indices":[22,9,27,27,54,0,49,12,0,2,10,23,0,0,0,12,0,0,5,0,0,0,0,0,0],"split_type":[0,0,0,0,0,0,0,0,0,0,0,0,0,0,0,0,0,0,0,0,0,0,0,0,0],"sum_hessian":[1.288535E2,1.0709519E2,2.1758312E1,1.314893E1,9.3946266E1,3.9877925E0,1.777052E1,9.922582E0,3.226348E0,7.854104E1,1.5405227E1,1.3995878E1,3.7746418E0,6.838134E0,3.0844483E0,7.420216E1,4.338876E0,3.6290495E0,1.1776177E1,1.0753857E1,3.2420216E0,1.341666E1,6.07855E1,7.156089E0,4.6200886E0],"tree_param":{"num_deleted":"0","num_feature":"56","num_nodes":"25","size_leaf_vector":"1"}},{"base_weights":[-4.5906104E-2,6.2342882E-2,-3.2377416E-1,1.4258352E-1,-2.11485E-1,-4.0333676E-1,1.5025486E-2,2.1397808E-1,-2.573438E-1,-4.1241518E-1,1.0091636E-1,-5.1178104E-1,-1.2009999E-1,-5.6663316E-2,3.2861832E-1,-5.5298436E-2,5.8138985E-3,-5.49249E-2,-1.1252277E-2,-2.8354451E-2,4.263495E-2,-1.5239983E-2,-6.0085304E-2,1.4539634E-2,-4.6508677E-2,-5.35431E-2,1.5956841E-2,5.5152684E-2,1.45214675E-2],"categories":[],"categories_nodes":[],"categories_segments":[],"categories_sizes":[],"default_left":[0,0,0,0,0,0,0,0,0,0,0,0,0,0,0,0,0,0,0,0,0,0,0,0,0,0,0,0,0],"id":42,"left_children":[1,3,5,7,9,11,-1,13,15,17,19,21,23,25,27,-1,-1,-1,-1,-1,-1,-1,-1,-1,-1,-1,-1,-1,-1],"loss_changes":[3.3238368E0,1.7852732E0,1.2280092E0,1.8360088E0,1.2032149E0,7.6097584E-1,0E0,1.6776574E0,9.557274E-1,4.08401E-1,1.1276792E0,5.184293E-1,8.663204E-1,1.8208665E0,1.461513E0,0E0,0E0,0E0,0E0,0E0,0E0,0E0,0E0,0E0,0E0,0E0,0E0,0E0,0E0],"parents":[2147483647,0,0,1,1,2,2,3,3,4,4,5,5,7,7,8,8,9,9,10,10,11,11,12,12,13,13,14,14],"right_children":[2,4,6,8,10,12,-1,14,16,18,20,22,24,26,28,-1,-1,-1,-1,-1,-1,-1,-1,-1,-1,-1,-1,-1,-1],"split_conditions":[5.5E-1,1.9E0,2.02E0,1.7E0,1.4E0,2.14E0,1.5025486E-2,1E0,-3.3E-1,1E0,4.3E0,-1E0,5.1E-1,1.18E0,-5.12E1,-5.5298436E-2,5.8138985E-3,-5.49249E-2,-1.1252277E-2,-2.8354451E-2,4.263495E-2,-1.5239983E-2,-6.0085304E-2,1.4539634E-2,-4.6508677E-2,-5.35431E-2,1.5956841E-2,5.5152684E-2,1.45214675E-2],"split_indices":[5,14,12,3,3,1,0,46,35,33,9,35,25,37,24,0,0,0,0,0,0,0,0,0,0,0,0,0,0],"split_type":[0,0,0,0,0,0,0,0,0,0,0,0,0,0,0,0,0,0,0,0,0,0,0,0,0,0,0,0,0],"sum_hessian":[1.08832726E2,7.887936E1,2.9953371E1,6.137403E1,1.7505327E1,2.5776148E1,4.1772237E0,5.2471786E1,8.902245E0,1.0458492E1,7.0468345E0,1.805604E1,7.7201085E0,1.5763416E1,3.670837E1,4.207012E0,4.6952324E0,6.6107006E0,3.847792E0,3.2894516E0,3.7573829E0,4.1247535E0,1.3931287E1,4.6896067E0,3.0305014E0,4.445114E0,1.1318302E1,1.5663633E1,2.1044735E1],"tree_param":{"num_deleted":"0","num_feature":"56","num_nodes":"29","size_leaf_vector":"1"}},{"base_weights":[-2.5112929E-2,1.7726272E-1,-1.13264255E-1,7.343145E-2,5.4635175E-2,-5.666558E-2,-5.2005664E-2,-1.1738839E-1,5.196627E-1,6.731869E-2,-1.05432905E-1,4.015546E-2,-5.3205837E-2,8.312722E-3,8.302607E-2,-4.23929E-1,8.950782E-3,-1.5540952E-2,4.2541634E-2,-5.3927563E-3,-5.116866E-2,-1.8023543E-2,3.105296E-2],"categories":[],"categories_nodes":[],"categories_segments":[],"categories_sizes":[],"default_left":[0,0,0,0,0,0,0,0,0,0,0,0,0,0,0,0,0,0,0,0,0,0,0],"id":43,"left_children":[1,3,5,-1,7,-1,9,11,13,-1,15,17,-1,-1,-1,19,21,-1,-1,-1,-1,-1,-1],"loss_changes":[1.8236746E0,2.0819669E0,1.9434583E0,0E0,2.1841776E0,0E0,2.5382805E0,1.3403468E0,9.2770946E-1,0E0,2.1960337E0,1.2385337E0,0E0,0E0,0E0,4.8938012E-1,2.6379216E0,0E0,0E0,0E0,0E0,0E0,0E0],"parents":[2147483647,0,0,1,1,2,2,4,4,6,6,7,7,8,8,10,10,11,11,15,15,16,16],"right_children":[2,4,6,-1,8,-1,10,12,14,-1,16,18,-1,-1,-1,20,22,-1,-1,-1,-1,-1,-1],"split_conditions":[1E0,1.3958E3,-1.5E0,7.343145E-2,8E0,-5.666558E-2,-1.17E0,5E0,4.7E-1,6.731869E-2,1.05E0,5.8E0,-5.3205837E-2,8.312722E-3,8.302607E-2,1.4228E3,7.5E-1,-1.5540952E-2,4.2541634E-2,-5.3927563E-3,-5.116866E-2,-1.8023543E-2,3.105296E-2],"split_indices":[46,22,35,0,39,0,35,21,5,0,1,10,0,0,0,23,29,0,0,0,0,0,0],"split_type":[0,0,0,0,0,0,0,0,0,0,0,0,0,0,0,0,0,0,0,0,0,0,0],"sum_hessian":[1.0010029E2,3.006558E1,7.003471E1,4.52446E0,2.554112E1,7.354182E0,6.268053E1,1.9189926E1,6.351195E0,3.505033E0,5.91755E1,1.4560991E1,4.6289344E0,3.1672966E0,3.183898E0,1.4921385E1,4.4254112E1,1.0054015E1,4.5069766E0,3.1701176E0,1.1751267E1,2.744174E1,1.6812372E1],"tree_param":{"num_deleted":"0","num_feature":"56","num_nodes":"23","size_leaf_vector":"1"}},{"base_weights":[6.938994E-2,3.0973334E-2,6.187565E-2,1.4093506E-1,-1.0358991E-1,5.038432E-1,3.567873E-2,4.4871427E-2,-1.56367E-1,7.433606E-2,-7.5821537E-3,3.8508126E-1,-5.37E-2,-3.6545613E-1,5.1701307E-2,6.843464E-2,8.5536495E-4,-4.105872E-2,7.971934E-3,1.9343043E-2,-4.6104144E-2,-4.084253E-2,2.1054303E-2],"categories":[],"categories_nodes":[],"categories_segments":[],"categories_sizes":[],"default_left":[0,0,0,0,0,0,0,0,0,0,0,0,0,0,0,0,0,0,0,0,0,0,0],"id":44,"left_children":[1,3,-1,5,7,9,11,-1,13,-1,-1,15,17,19,21,-1,-1,-1,-1,-1,-1,-1,-1],"loss_changes":[2.5343044E0,1.7034326E0,0E0,2.3974082E0,1.5830657E0,2.0195906E0,1.5850226E0,0E0,2.1122084E0,0E0,0E0,1.157707E0,1.9738468E0,1.3778872E0,1.9126873E0,0E0,0E0,0E0,0E0,0E0,0E0,0E0,0E0],"parents":[2147483647,0,0,1,1,3,3,4,4,5,5,6,6,8,8,11,11,12,12,13,13,14,14],"right_children":[2,4,-1,6,8,10,12,-1,14,-1,-1,16,18,20,22,-1,-1,-1,-1,-1,-1,-1,-1],"split_conditions":[2.71E0,1E0,6.187565E-2,1.2E0,5E-1,1.42E0,2E-1,4.4871427E-2,1.5069E3,7.433606E-2,-7.5821537E-3,2E-1,1.4401E3,3.3E0,1.07E0,6.843464E-2,8.5536495E-4,-4.105872E-2,7.971934E-3,1.9343043E-2,-4.6104144E-2,-4.084253E-2,2.1054303E-2],"split_indices":[0,36,0,2,34,0,55,0,22,0,0,17,22,9,28,0,0,0,0,0,0,0,0],"split_type":[0,0,0,0,0,0,0,0,0,0,0,0,0,0,0,0,0,0,0,0,0,0,0],"sum_hessian":[1.1999001E2,1.1313499E2,6.8550262E0,6.2232655E1,5.090233E1,1.3140242E1,4.9092415E1,3.7855086E0,4.7116817E1,9.098391E0,4.0418515E0,9.326094E0,3.976632E1,2.3123474E1,2.3993343E1,4.740674E0,4.585419E0,1.0255683E1,2.9510637E1,3.2276697E0,1.9895805E1,5.7540274E0,1.8239317E1],"tree_param":{"num_deleted":"0","num_feature":"56","num_nodes":"23","size_leaf_vector":"1"}},{"base_weights":[-2.5065614E-2,4.810528E-2,-4.7240168E-1,1.3369419E-1,-2.548355E-1,-7.199203E-3,-5.731405E-2,1.9091189E-1,-4.4818643E-2,-5.1535394E-2,2.2799462E-1,2.8112882E-1,-1.7905699E-1,-3.229415E-2,7.5285E-2,1.8219523E-2,6.487613E-2,-4.4886243E-2,1.7255243E-2],"categories":[],"categories_nodes":[],"categories_segments":[],"categories_sizes":[],"default_left":[0,0,0,0,0,0,0,0,0,0,0,0,0,0,0,0,0,0,0],"id":45,"left_children":[1,3,5,7,9,-1,-1,11,-1,-1,13,15,17,-1,-1,-1,-1,-1,-1],"loss_changes":[3.3836915E0,2.3456995E0,5.4471064E-1,2.4218144E0,2.6311917E0,0E0,0E0,2.2061734E0,0E0,0E0,2.4687922E0,1.7846031E0,1.3366423E0,0E0,0E0,0E0,0E0,0E0,0E0],"parents":[2147483647,0,0,1,1,2,2,3,3,4,4,7,7,10,10,11,11,12,12],"right_children":[2,4,6,8,10,-1,-1,12,-1,-1,14,16,18,-1,-1,-1,-1,-1,-1],"split_conditions":[5E0,5.5E-1,3.7E0,2E0,1.18E1,-7.199203E-3,-5.731405E-2,7.1E-1,-4.4818643E-2,-5.1535394E-2,5E0,1.29E0,2.7E-1,-3.229415E-2,7.5285E-2,1.8219523E-2,6.487613E-2,-4.4886243E-2,1.7255243E-2],"split_indices":[45,5,21,3,19,0,0,52,0,0,9,29,16,0,0,0,0,0,0],"split_type":[0,0,0,0,0,0,0,0,0,0,0,0,0,0,0,0,0,0,0],"sum_hessian":[1.01681435E2,8.815445E1,1.3526987E1,6.917058E1,1.898387E1,3.0638099E0,1.0463177E1,6.358957E1,5.581008E0,1.2286914E1,6.696955E0,5.1316235E1,1.2273337E1,3.4549882E0,3.2419672E0,4.1613277E1,9.702957E0,6.7880063E0,5.4853306E0],"tree_param":{"num_deleted":"0","num_feature":"56","num_nodes":"19","size_leaf_vector":"1"}},{"base_weights":[-3.401066E-2,-8.840522E-2,2.77829E-1,-1.2506652E-1,3.772659E-2,8.762188E-2,4.8458964E-2,-6.993217E-2,-5.5787265E-2,2.4271713E-1,-3.4794323E-2,-2.6306325E-1,4.0393177E-2,-1.2250315E-2,6.363711E-2,-1.1508894E-2,-5.63639E-2,-1.35093285E-2,2.4862235E-2],"categories":[],"categories_nodes":[],"categories_segments":[],"categories_sizes":[],"default_left":[0,0,0,0,0,0,0,0,0,0,0,0,0,0,0,0,0,0,0],"id":46,"left_children":[1,3,5,7,-1,-1,9,11,-1,13,-1,15,17,-1,-1,-1,-1,-1,-1],"loss_changes":[1.837114E0,1.6134629E0,2.1689882E0,2.0083938E0,0E0,0E0,1.0628791E0,1.6565825E0,0E0,1.388622E0,0E0,1.1901884E0,1.861784E0,0E0,0E0,0E0,0E0,0E0,0E0],"parents":[2147483647,0,0,1,1,2,2,3,3,6,6,7,7,9,9,11,11,12,12],"right_children":[2,4,6,8,-1,-1,10,12,-1,14,-1,16,18,-1,-1,-1,-1,-1,-1],"split_conditions":[1.33E0,2.19E0,0E0,5.5E0,3.772659E-2,8.762188E-2,8E-1,1.05E0,-5.5787265E-2,1.65E0,-3.4794323E-2,3E0,1E0,-1.2250315E-2,6.363711E-2,-1.1508894E-2,-5.63639E-2,-1.35093285E-2,2.4862235E-2],"split_indices":[35,1,33,9,0,0,4,1,0,37,0,43,36,0,0,0,0,0,0],"split_type":[0,0,0,0,0,0,0,0,0,0,0,0,0,0,0,0,0,0,0],"sum_hessian":[1.058572E2,9.074495E1,1.51122465E1,8.480024E1,5.9447155E0,3.406118E0,1.1706128E1,7.624864E1,8.551592E0,8.116373E0,3.589755E0,2.7217812E1,4.9030834E1,4.5675464E0,3.548827E0,1.9165483E1,8.052329E0,2.6797932E1,2.22329E1],"tree_param":{"num_deleted":"0","num_feature":"56","num_nodes":"19","size_leaf_vector":"1"}},{"base_weights":[5.1873766E-2,3.3589748E-1,-4.8960417E-5,-1.0318322E-2,4.7480357E-1,-1.8738455E-1,7.5822785E-2,6.006094E-1,4.954865E-3,-4.649628E-1,5.7607677E-2,2.519348E-1,-1.6457506E-1,6.992247E-2,2.7253896E-2,-6.273195E-2,9.004944E-3,3.1239513E-1,-4.9165443E-2,3.1799942E-1,-4.181803E-2,-2.574399E-1,3.990443E-2,-1.850884E-2,6.719963E-2,4.0103912E-2,-3.322844E-2,-5.017249E-2,-3.136032E-3],"categories":[],"categories_nodes":[],"categories_segments":[],"categories_sizes":[],"default_left":[0,0,0,0,0,0,0,0,0,0,0,0,0,0,0,0,0,0,0,0,0,0,0,0,0,0,0,0,0],"id":47,"left_children":[1,3,5,-1,7,9,11,13,-1,15,17,19,21,-1,-1,-1,-1,23,-1,25,-1,27,-1,-1,-1,-1,-1,-1,-1],"loss_changes":[1.864933E0,1.2410667E0,1.5480299E0,0E0,7.741463E-1,2.161785E0,3.323347E0,1.8168497E-1,0E0,1.3927188E0,2.611879E0,2.1312146E0,1.8499451E0,0E0,0E0,0E0,0E0,2.3804708E0,0E0,2.3825483E0,0E0,1.600646E0,0E0,0E0,0E0,0E0,0E0,0E0,0E0],"parents":[2147483647,0,0,1,1,2,2,4,4,5,5,6,6,7,7,9,9,10,10,11,11,12,12,17,17,19,19,21,21],"right_children":[2,4,6,-1,8,10,12,14,-1,16,18,20,22,-1,-1,-1,-1,24,-1,26,-1,28,-1,-1,-1,-1,-1,-1,-1],"split_conditions":[1.3E-1,1E1,1.4359E3,-1.0318322E-2,3.4E0,1.9E-1,1.38E0,3E0,4.954865E-3,3.25E0,1E0,1.5818E3,1E1,6.992247E-2,2.7253896E-2,-6.273195E-2,9.004944E-3,9E-1,-4.9165443E-2,1.2E1,-4.181803E-2,1.6E0,3.990443E-2,-1.850884E-2,6.719963E-2,4.0103912E-2,-3.322844E-2,-5.017249E-2,-3.136032E-3],"split_indices":[17,19,23,0,51,25,50,40,0,51,36,23,42,0,0,0,0,3,0,42,0,12,0,0,0,0,0,0,0],"split_type":[0,0,0,0,0,0,0,0,0,0,0,0,0,0,0,0,0,0,0,0,0,0,0,0,0,0,0,0,0],"sum_hessian":[1.25458305E2,1.8545105E1,1.0691319E2,4.5187035E0,1.4026402E1,3.0394966E1,7.6518234E1,1.0505996E1,3.520407E0,1.3828871E1,1.6566095E1,4.4136486E1,3.2381744E1,7.2080054E0,3.29799E0,1.0598292E1,3.2305784E0,1.1611218E1,4.954877E0,4.0653984E1,3.482499E0,2.8267485E1,4.1142607E0,5.0752516E0,6.535967E0,3.6390312E1,4.263672E0,1.3000674E1,1.5266811E1],"tree_param":{"num_deleted":"0","num_feature":"56","num_nodes":"29","size_leaf_vector":"1"}},{"base_weights":[-3.5794307E-2,-2.118587E-1,8.209798E-2,1.4869353E-1,-3.68887E-1,6.1041874E-1,-1.3742212E-2,-2.1544643E-2,4.2851883E-1,9.02839E-3,-4.8408484E-1,8.968583E-3,8.85796E-2,1.9482425E-1,-1.7354865E-1,9.100263E-2,-1.1913219E-2,-1.8801156E-2,-5.4177725E-1,3.174985E-1,-2.0552287E-2,6.5250784E-2,-3.9054555E-1,-5.8641672E-2,-2.2326982E-2,-1.1173678E-3,5.302615E-2,-2.8833587E-2,5.304708E-2,-5.079624E-2,3.5325873E-3],"categories":[],"categories_nodes":[],"categories_segments":[],"categories_sizes":[],"default_left":[0,0,0,0,0,0,0,0,0,0,0,0,0,0,0,0,0,0,0,0,0,0,0,0,0,0,0,0,0,0,0],"id":48,"left_children":[1,3,5,7,9,11,13,-1,15,-1,17,-1,-1,19,21,-1,-1,-1,23,25,-1,27,29,-1,-1,-1,-1,-1,-1,-1,-1],"loss_changes":[2.197298E0,2.455336E0,3.229916E0,1.4756603E0,1.621192E0,1.3246255E0,1.8613744E0,0E0,2.2209868E0,0E0,3.0806255E-1,0E0,0E0,1.2566264E0,1.6615968E0,0E0,0E0,0E0,1.4708042E-1,1.3318805E0,0E0,2.7665555E0,8.522792E-1,0E0,0E0,0E0,0E0,0E0,0E0,0E0,0E0],"parents":[2147483647,0,0,1,1,2,2,3,3,4,4,5,5,6,6,8,8,10,10,13,13,14,14,18,18,19,19,21,21,22,22],"right_children":[2,4,6,8,10,12,14,-1,16,-1,18,-1,-1,20,22,-1,-1,-1,24,26,-1,28,30,-1,-1,-1,-1,-1,-1,-1,-1],"split_conditions":[-5E-1,8.2E-1,3.7E0,1.3955E3,1.1E0,2.15E-1,1.29E0,-2.1544643E-2,2.06E0,9.02839E-3,4.3E0,8.968583E-3,8.85796E-2,3.37E-1,5.6E-1,9.100263E-2,-1.1913219E-2,-1.8801156E-2,6.7E0,9.1E-1,-2.0552287E-2,1.5092E3,8.9E-1,-5.8641672E-2,-2.2326982E-2,-1.1173678E-3,5.302615E-2,-2.8833587E-2,5.304708E-2,-5.079624E-2,3.5325873E-3],"split_indices":[15,12,21,23,2,32,11,0,28,0,10,0,0,32,54,0,0,0,10,11,0,22,54,0,0,0,0,0,0,0,0],"split_type":[0,0,0,0,0,0,0,0,0,0,0,0,0,0,0,0,0,0,0,0,0,0,0,0,0,0,0,0,0,0,0],"sum_hessian":[1.0402209E2,4.1398735E1,6.262335E1,1.257603E1,2.8822706E1,8.79141E0,5.383194E1,5.564695E0,7.011335E0,5.824181E0,2.2998524E1,3.499538E0,5.2918725E0,2.3258152E1,3.0573788E1,3.378867E0,3.632468E0,4.445157E0,1.8553368E1,1.7961374E1,5.2967772E0,1.4888586E1,1.5685202E1,1.5534969E1,3.018398E0,7.4304476E0,1.0530927E1,8.675249E0,6.2133365E0,1.2144175E1,3.541027E0],"tree_param":{"num_deleted":"0","num_feature":"56","num_nodes":"31","size_leaf_vector":"1"}},{"base_weights":[-2.07834E-2,4.603482E-2,-2.5154746E-1,1.422275E-1,-2.3733556E-1,-5.7981785E-2,-7.5466E-3,2.0574462E-1,-2.8310472E-1,-5.559043E-2,1.690131E-3,2.3390138E-1,-3.8565274E-2,-3.4630742E-2,2.5647002E-1,-5.146834E-2,9.7042555E-3,-2.4004188E-1,6.114912E-2,-2.6261916E-2,5.0795972E-2,3.4438208E-2,-7.69017E-3,-5.239312E-2,1.1269184E-2],"categories":[],"categories_nodes":[],"categories_segments":[],"categories_sizes":[],"default_left":[0,0,0,0,0,0,0,0,0,0,0,0,0,0,0,0,0,0,0,0,0,0,0,0,0],"id":49,"left_children":[1,3,5,7,9,-1,11,13,15,-1,17,19,-1,-1,21,-1,-1,23,-1,-1,-1,-1,-1,-1,-1],"loss_changes":[1.6387243E0,2.2873921E0,1.9059184E0,1.7426822E0,1.624959E0,0E0,1.4316492E0,1.6241612E0,8.0018103E-1,0E0,2.089928E0,1.4383564E0,0E0,0E0,1.5149574E0,0E0,0E0,1.0762429E0,0E0,0E0,0E0,0E0,0E0,0E0,0E0],"parents":[2147483647,0,0,1,1,2,2,3,3,4,4,6,6,7,7,8,8,10,10,11,11,14,14,17,17],"right_children":[2,4,6,8,10,-1,12,14,16,-1,18,20,-1,-1,22,-1,-1,24,-1,-1,-1,-1,-1,-1,-1],"split_conditions":[5.2E0,1.8E0,1.4E0,8E-1,9.7E0,-5.7981785E-2,1.6014E3,9.9E0,0E0,-5.559043E-2,5E0,1E0,-3.8565274E-2,-3.4630742E-2,1.82E0,-5.146834E-2,9.7042555E-3,1.6E0,6.114912E-2,-2.6261916E-2,5.0795972E-2,3.4438208E-2,-7.69017E-3,-5.239312E-2,1.1269184E-2],"split_indices":[21,2,13,54,19,0,23,8,33,0,45,36,0,0,34,0,0,14,0,0,0,0,0,0,0],"split_type":[0,0,0,0,0,0,0,0,0,0,0,0,0,0,0,0,0,0,0,0,0,0,0,0,0],"sum_hessian":[1.0452688E2,8.16775E1,2.284938E1,6.134982E1,2.0327675E1,9.155538E0,1.3693843E1,5.3827713E1,7.5221043E0,8.145631E0,1.2182044E1,8.589936E0,5.103906E0,4.039386E0,4.978833E1,4.4545627E0,3.0675416E0,9.158051E0,3.023994E0,3.0698779E0,5.5200586E0,3.9372536E1,1.0415793E1,4.8052855E0,4.3527646E0],"tree_param":{"num_deleted":"0","num_feature":"56","num_nodes":"25","size_leaf_vector":"1"}},{"base_weights":[9.290756E-2,2.4629733E-2,3.936275E-1,4.570763E-1,-3.746213E-2,5.0486565E-1,-1.6168326E-2,6.543795E-1,-1.1862321E-2,1.3243179E-1,-1.311446E-1,8.444214E-3,6.2983644E-1,3.0561253E-2,7.673063E-2,3.4032026E-1,-2.5212148E-1,-5.1715463E-1,-3.0230476E-2,3.5178136E-2,7.159301E-2,5.565187E-2,-4.3937066E-3,-4.620418E-2,1.7850766E-2,-1.5132832E-2,-6.607365E-2,5.6238133E-2,-9.477749E-3],"categories":[],"categories_nodes":[],"categories_segments":[],"categories_sizes":[],"default_left":[0,0,0,0,0,0,0,0,0,0,0,0,0,0,0,0,0,0,0,0,0,0,0,0,0,0,0,0,0],"id":50,"left_children":[1,3,5,7,9,11,-1,13,-1,15,17,-1,19,-1,-1,21,23,25,27,-1,-1,-1,-1,-1,-1,-1,-1,-1,-1],"loss_changes":[2.5371823E0,2.7601535E0,1.4952948E0,1.5431232E0,1.453857E0,9.613037E-1,0E0,1.4999056E-1,0E0,2.6900918E0,2.2700849E0,0E0,1.0075474E-1,0E0,0E0,1.816467E0,1.1677501E0,5.355103E-1,1.8732553E0,0E0,0E0,0E0,0E0,0E0,0E0,0E0,0E0,0E0,0E0],"parents":[2147483647,0,0,1,1,2,2,3,3,4,4,5,5,7,7,9,9,10,10,12,12,15,15,16,16,17,17,18,18],"right_children":[2,4,6,8,10,12,-1,14,-1,16,18,-1,20,-1,-1,22,24,26,28,-1,-1,-1,-1,-1,-1,-1,-1,-1,-1],"split_conditions":[1.51E1,3.3E0,1E1,7E-2,4E-1,6E-1,-1.6168326E-2,6E0,-1.1862321E-2,1.91E0,7.8E-1,8.444214E-3,5.8E-2,3.0561253E-2,7.673063E-2,3E0,1.88E0,7.8E-1,2.9E-1,3.5178136E-2,7.159301E-2,5.565187E-2,-4.3937066E-3,-4.620418E-2,1.7850766E-2,-1.5132832E-2,-6.607365E-2,5.6238133E-2,-9.477749E-3],"split_indices":[8,9,42,27,55,50,0,39,0,0,13,0,32,0,0,47,1,50,50,0,0,0,0,0,0,0,0,0,0],"split_type":[0,0,0,0,0,0,0,0,0,0,0,0,0,0,0,0,0,0,0,0,0,0,0,0,0,0,0,0,0],"sum_hessian":[1.2304124E2,1.011559E2,2.1885332E1,1.1901955E1,8.925395E1,1.8308643E1,3.5766895E0,8.762284E0,3.1396697E0,3.157635E1,5.7677597E1,4.5791793E0,1.3729463E1,3.0497189E0,5.712566E0,2.0570835E1,1.1005514E1,1.1098738E1,4.657886E1,4.4484415E0,9.281021E0,1.2877274E1,7.6935625E0,7.3497562E0,3.655758E0,3.707219E0,7.391519E0,3.8174815E0,4.276138E1],"tree_param":{"num_deleted":"0","num_feature":"56","num_nodes":"29","size_leaf_vector":"1"}},{"base_weights":[-4.007928E-2,-2.0184276E-1,8.329971E-2,-2.5818855E-1,2.8383939E-2,3.033699E-1,-7.341412E-2,-1.0873204E-1,-4.7199258E-1,6.2018618E-2,4.5651716E-1,4.221785E-2,-1.7424835E-1,-3.2029542E-1,1.6996959E-1,-5.676533E-2,-1.2472512E-2,-2.2020099E-1,4.8021983E-2,-6.583256E-3,6.4357644E-1,2.2212301E-1,-3.9151415E-1,-4.633999E-2,-4.4906876E-4,4.195879E-2,-2.994503E-2,1.2843834E-2,-5.2226454E-2,8.414107E-2,1.5404581E-2,6.1400067E-2,-1.4641543E-2,-5.222146E-2,-1.3425134E-5],"categories":[],"categories_nodes":[],"categories_segments":[],"categories_sizes":[],"default_left":[0,0,0,0,0,0,0,0,0,0,0,0,0,0,0,0,0,0,0,0,0,0,0,0,0,0,0,0,0,0,0,0,0,0,0],"id":51,"left_children":[1,